FANN_FLO_2.1
num_layers=3
learning_rate=0.700000
connection_rate=1.000000
network_type=0
learning_momentum=0.000000
training_algorithm=2
train_error_function=1
train_stop_function=0
cascade_output_change_fraction=0.010000
quickprop_decay=-0.000100
quickprop_mu=1.750000
rprop_increase_factor=1.200000
rprop_decrease_factor=0.500000
rprop_delta_min=0.000000
rprop_delta_max=50.000000
rprop_delta_zero=0.100000
cascade_output_stagnation_epochs=12
cascade_candidate_change_fraction=0.010000
cascade_candidate_stagnation_epochs=12
cascade_max_out_epochs=150
cascade_min_out_epochs=50
cascade_max_cand_epochs=150
cascade_min_cand_epochs=50
cascade_num_candidate_groups=2
bit_fail_limit=3.49999994039535522461e-01
cascade_candidate_limit=1.00000000000000000000e+03
cascade_weight_multiplier=4.00000005960464477539e-01
cascade_activation_functions_count=10
cascade_activation_functions=3 5 7 8 10 11 14 15 16 17 
cascade_activation_steepnesses_count=4
cascade_activation_steepnesses=2.50000000000000000000e-01 5.00000000000000000000e-01 7.50000000000000000000e-01 1.00000000000000000000e+00 
layer_sizes=4 10 5 
scale_included=0
neurons (num_inputs, activation_function, activation_steepness)=(0, 0, 0.00000000000000000000e+00) (0, 0, 0.00000000000000000000e+00) (0, 0, 0.00000000000000000000e+00) (0, 0, 0.00000000000000000000e+00) (4, 5, 5.00000000000000000000e-01) (4, 5, 5.00000000000000000000e-01) (4, 5, 5.00000000000000000000e-01) (4, 5, 5.00000000000000000000e-01) (4, 5, 5.00000000000000000000e-01) (4, 5, 5.00000000000000000000e-01) (4, 5, 5.00000000000000000000e-01) (4, 5, 5.00000000000000000000e-01) (4, 5, 5.00000000000000000000e-01) (0, 5, 0.00000000000000000000e+00) (10, 5, 5.00000000000000000000e-01) (10, 5, 5.00000000000000000000e-01) (10, 5, 5.00000000000000000000e-01) (10, 5, 5.00000000000000000000e-01) (0, 5, 0.00000000000000000000e+00) 
connections (connected_to_neuron, weight)=(0, 6.08244514465332031250e+00) (1, -4.15092378854751586914e-01) (2, 4.02869367599487304688e+00) (3, 6.98200345039367675781e-01) (0, -8.20659816265106201172e-01) (1, 3.94893002510070800781e+00) (2, 2.23219180107116699219e+00) (3, -1.71739399433135986328e-01) (0, -2.83055216073989868164e-01) (1, 1.59374415874481201172e+00) (2, 1.59771227836608886719e+00) (3, -2.58699744939804077148e-01) (0, -6.87265038490295410156e-01) (1, 1.67824530601501464844e+00) (2, 1.76316571235656738281e+00) (3, -2.63327449560165405273e-01) (0, -3.76033246517181396484e-01) (1, 2.44062089920043945312e+00) (2, 2.45415854454040527344e+00) (3, -1.48182138800621032715e-01) (0, -1.68304805755615234375e+01) (1, 9.03474330902099609375e-01) (2, -9.86018466949462890625e+00) (3, -2.95832008123397827148e-01) (0, -4.24379882812500000000e+01) (1, 4.98556518554687500000e+00) (2, -8.58783435821533203125e+00) (3, 5.79941511154174804688e+00) (0, 4.93124866485595703125e+00) (1, -9.25396156311035156250e+00) (2, 1.48109424114227294922e+00) (3, -4.97898757457733154297e-01) (0, -4.09054088592529296875e+00) (1, -1.23923027515411376953e+00) (2, 7.24283814430236816406e-01) (3, 3.57224233448505401611e-02) (4, -1.50000000000000000000e+03) (5, 1.11129467773437500000e+03) (6, 7.25584182739257812500e+01) (7, 7.31805648803710937500e+01) (8, 7.30425567626953125000e+01) (9, 2.28325576782226562500e+01) (10, 1.42682968139648437500e+02) (11, 9.80901306152343750000e+02) (12, 1.71494384765625000000e+02) (13, 7.37869140625000000000e+02) (4, 1.60915405273437500000e+02) (5, 9.81021022796630859375e+00) (6, 1.85025482177734375000e+01) (7, 1.24658050537109375000e+01) (8, 1.13334922790527343750e+01) (9, 8.62036743164062500000e+01) (10, 6.08981943130493164062e+00) (11, -1.47114956378936767578e+00) (12, 7.75569305419921875000e+01) (13, -1.45570075511932373047e+00) (4, 4.16601486206054687500e+01) (5, 3.83223037719726562500e+01) (6, 4.99949026107788085938e+00) (7, 3.08524370193481445312e+00) (8, 6.94009733200073242188e+00) (9, -2.88270587921142578125e+01) (10, 5.00907363891601562500e+01) (11, 1.49455728530883789062e+01) (12, 9.42798995971679687500e+00) (13, -2.51647815704345703125e+01) (4, 1.48704003906250000000e+03) (5, 1.48416003417968750000e+03) (6, 1.48416003417968750000e+03) (7, 1.48416003417968750000e+03) (8, 1.48416003417968750000e+03) (9, -4.35542572021484375000e+02) (10, 4.93885406494140625000e+02) (11, 1.50000000000000000000e+03) (12, 1.48416003417968750000e+03) (13, 1.48704003906250000000e+03) 
