FANN_FLO_2.1
num_layers=3
learning_rate=0.700000
connection_rate=1.000000
network_type=0
learning_momentum=0.000000
training_algorithm=2
train_error_function=1
train_stop_function=0
cascade_output_change_fraction=0.010000
quickprop_decay=-0.000100
quickprop_mu=1.750000
rprop_increase_factor=1.200000
rprop_decrease_factor=0.500000
rprop_delta_min=0.000000
rprop_delta_max=50.000000
rprop_delta_zero=0.100000
cascade_output_stagnation_epochs=12
cascade_candidate_change_fraction=0.010000
cascade_candidate_stagnation_epochs=12
cascade_max_out_epochs=150
cascade_min_out_epochs=50
cascade_max_cand_epochs=150
cascade_min_cand_epochs=50
cascade_num_candidate_groups=2
bit_fail_limit=3.49999994039535522461e-01
cascade_candidate_limit=1.00000000000000000000e+03
cascade_weight_multiplier=4.00000005960464477539e-01
cascade_activation_functions_count=10
cascade_activation_functions=3 5 7 8 10 11 14 15 16 17 
cascade_activation_steepnesses_count=4
cascade_activation_steepnesses=2.50000000000000000000e-01 5.00000000000000000000e-01 7.50000000000000000000e-01 1.00000000000000000000e+00 
layer_sizes=17 10 4 
scale_included=0
neurons (num_inputs, activation_function, activation_steepness)=(0, 0, 0.00000000000000000000e+00) (0, 0, 0.00000000000000000000e+00) (0, 0, 0.00000000000000000000e+00) (0, 0, 0.00000000000000000000e+00) (0, 0, 0.00000000000000000000e+00) (0, 0, 0.00000000000000000000e+00) (0, 0, 0.00000000000000000000e+00) (0, 0, 0.00000000000000000000e+00) (0, 0, 0.00000000000000000000e+00) (0, 0, 0.00000000000000000000e+00) (0, 0, 0.00000000000000000000e+00) (0, 0, 0.00000000000000000000e+00) (0, 0, 0.00000000000000000000e+00) (0, 0, 0.00000000000000000000e+00) (0, 0, 0.00000000000000000000e+00) (0, 0, 0.00000000000000000000e+00) (0, 0, 0.00000000000000000000e+00) (17, 5, 5.00000000000000000000e-01) (17, 5, 5.00000000000000000000e-01) (17, 5, 5.00000000000000000000e-01) (17, 5, 5.00000000000000000000e-01) (17, 5, 5.00000000000000000000e-01) (17, 5, 5.00000000000000000000e-01) (17, 5, 5.00000000000000000000e-01) (17, 5, 5.00000000000000000000e-01) (17, 5, 5.00000000000000000000e-01) (0, 5, 0.00000000000000000000e+00) (10, 5, 5.00000000000000000000e-01) (10, 5, 5.00000000000000000000e-01) (10, 5, 5.00000000000000000000e-01) (0, 5, 0.00000000000000000000e+00) 
connections (connected_to_neuron, weight)=(0, -6.72703385353088378906e-01) (1, 1.23774611949920654297e+00) (2, 6.75231933593750000000e-01) (3, 3.98793280124664306641e-01) (4, -2.12306427955627441406e+00) (5, -5.16579151153564453125e-02) (6, 2.44114995002746582031e+00) (7, 2.09784865379333496094e+00) (8, -3.99420559406280517578e-01) (9, 7.77337253093719482422e-02) (10, 2.68041580915451049805e-01) (11, 2.12647604942321777344e+00) (12, 1.21757543087005615234e+00) (13, -3.56259852647781372070e-01) (14, 2.10703462362289428711e-01) (15, 9.51785564422607421875e-01) (16, 1.38222062587738037109e+00) (0, 1.55442166328430175781e+00) (1, -7.32796311378479003906e-01) (2, -2.77934279292821884155e-02) (3, 1.40082880854606628418e-01) (4, 1.27170867919921875000e+01) (5, -1.31072127819061279297e+00) (6, -9.17734578251838684082e-03) (7, -1.26687717437744140625e+01) (8, 2.05676221847534179688e+00) (9, 4.89587858319282531738e-02) (10, 2.77057051658630371094e-01) (11, -4.76154275238513946533e-02) (12, -6.04418218135833740234e-01) (13, 4.02654123306274414062e+00) (14, 7.66460657119750976562e-01) (15, 2.03688994050025939941e-01) (16, -9.94776710867881774902e-02) (0, 2.04667448997497558594e+00) (1, -7.58612573146820068359e-01) (2, -1.95607513189315795898e-01) (3, 2.79791764914989471436e-02) (4, 1.27879476547241210938e+01) (5, -1.30344474315643310547e+00) (6, -3.53807210922241210938e-01) (7, -1.26267652511596679688e+01) (8, 2.44215345382690429688e+00) (9, 7.91713595390319824219e-02) (10, 1.86691880226135253906e-02) (11, -7.91146755218505859375e-02) (12, -5.11780440807342529297e-01) (13, 1.43233752250671386719e+00) (14, 1.55222386121749877930e-01) (15, 3.93517911434173583984e-02) (16, -1.12016215920448303223e-01) (0, 2.07665294408798217773e-01) (1, 2.98143744468688964844e+00) (2, 3.35019320249557495117e-01) (3, 3.50271075963973999023e-01) (4, -6.31516408920288085938e+00) (5, -2.35200196504592895508e-01) (6, 2.35091000795364379883e-01) (7, 2.94572424888610839844e+00) (8, -1.34050917625427246094e+00) (9, -4.74702507257461547852e-01) (10, 7.41567373275756835938e-01) (11, 4.18295711278915405273e-01) (12, 8.79623055458068847656e-01) (13, 2.01172336935997009277e-01) (14, 4.47613596916198730469e-01) (15, -2.55347434431314468384e-02) (16, 2.45723217725753784180e-01) (0, -5.39409279823303222656e-01) (1, 4.73420679569244384766e-01) (2, -1.51031541824340820312e+00) (3, -1.61775803565979003906e+00) (4, -2.05328255891799926758e-01) (5, 4.94507551193237304688e-01) (6, 7.80040323734283447266e-01) (7, 4.81285929679870605469e-01) (8, -2.30767071247100830078e-01) (9, -8.61022397875785827637e-02) (10, -1.57157510519027709961e-01) (11, 2.93329179286956787109e-01) (12, 2.47361324727535247803e-03) (13, 7.51971080899238586426e-02) (14, 7.83064290881156921387e-02) (15, -1.42851158976554870605e-01) (16, 3.49057465791702270508e-02) (0, 2.32827234268188476562e+00) (1, 2.33428224921226501465e-01) (2, 6.14555597305297851562e-01) (3, -3.19181174039840698242e-01) (4, -1.97144951671361923218e-02) (5, -4.94427159428596496582e-02) (6, 5.86651377379894256592e-02) (7, -5.32944262027740478516e-01) (8, -1.77662506699562072754e-01) (9, -1.66312292218208312988e-01) (10, 1.28835037350654602051e-01) (11, 2.66363527625799179077e-02) (12, 1.15533955395221710205e-01) (13, 5.77011287212371826172e-01) (14, 7.08121359348297119141e-01) (15, 1.62549957633018493652e-01) (16, 2.22144629806280136108e-02) (0, 6.48387241363525390625e+00) (1, 4.36700046062469482422e-01) (2, 1.09566283226013183594e+00) (3, -2.02067002654075622559e-01) (4, 2.36663177609443664551e-01) (5, 6.49275258183479309082e-02) (6, -2.26483061909675598145e-01) (7, -1.52895379066467285156e+00) (8, -2.00595825910568237305e-01) (9, -9.12504255771636962891e-01) (10, 1.04885327816009521484e+00) (11, -1.67108997702598571777e-01) (12, 4.32595163583755493164e-02) (13, 3.64179968833923339844e-01) (14, 1.14236867427825927734e+00) (15, 1.21079109609127044678e-01) (16, -1.39757201075553894043e-01) (0, -7.53723478317260742188e+00) (1, -2.62337550520896911621e-03) (2, -5.83281576633453369141e-01) (3, 1.46366715431213378906e-01) (4, -1.17314600944519042969e+00) (5, 5.82844205200672149658e-02) (6, 3.65621179342269897461e-01) (7, 2.80457043647766113281e+00) (8, -1.62555761635303497314e-02) (9, 8.57203304767608642578e-02) (10, -4.96337324380874633789e-01) (11, 2.22880780696868896484e-01) (12, 9.10755634307861328125e-01) (13, -1.08939683437347412109e+00) (14, -1.26290905475616455078e+00) (15, 1.07874281704425811768e-01) (16, 3.70307385921478271484e-01) (0, -4.79954719543457031250e+00) (1, 1.19150631129741668701e-01) (2, -1.04283683001995086670e-01) (3, 3.13465029001235961914e-01) (4, -1.97346195578575134277e-01) (5, 3.11542749404907226562e-01) (6, 6.30928948521614074707e-02) (7, 1.74323093891143798828e+00) (8, 5.05089700222015380859e-01) (9, 9.68167066574096679688e-01) (10, -7.72053375840187072754e-04) (11, 1.96946427226066589355e-01) (12, 1.94335579872131347656e-01) (13, -4.50163394212722778320e-01) (14, -4.27086025476455688477e-01) (15, -5.52631877362728118896e-02) (16, -1.00255742669105529785e-01) (17, 3.19301903247833251953e-01) (18, -4.04052305221557617188e+00) (19, -5.47966289520263671875e+00) (20, 1.59070181846618652344e+00) (21, 5.93843162059783935547e-01) (22, 9.90398600697517395020e-03) (23, -4.16585773229598999023e-01) (24, 2.27318334579467773438e+00) (25, 8.12732577323913574219e-01) (26, 2.68759042024612426758e-01) (17, -2.06936740875244140625e+00) (18, 1.11640143394470214844e+00) (19, 2.03370261192321777344e+00) (20, -6.29427909851074218750e+00) (21, 1.70087838172912597656e+00) (22, -2.56289339065551757812e+00) (23, -1.01176846027374267578e+00) (24, 2.80118174850940704346e-02) (25, 6.84645473957061767578e-01) (26, -2.04303216934204101562e+00) (17, -3.91014993190765380859e-01) (18, 3.82306754589080810547e-01) (19, 1.99518561363220214844e+00) (20, 4.62846338748931884766e-01) (21, -4.85807508230209350586e-02) (22, 1.87153175473213195801e-01) (23, 2.37983608245849609375e+00) (24, -6.31339883804321289062e+00) (25, -1.01297092437744140625e+00) (26, -4.11650121212005615234e-01) 
