FANN_FLO_2.1
num_layers=3
learning_rate=0.700000
connection_rate=1.000000
network_type=0
learning_momentum=0.000000
training_algorithm=2
train_error_function=1
train_stop_function=0
cascade_output_change_fraction=0.010000
quickprop_decay=-0.000100
quickprop_mu=1.750000
rprop_increase_factor=1.200000
rprop_decrease_factor=0.500000
rprop_delta_min=0.000000
rprop_delta_max=50.000000
rprop_delta_zero=0.100000
cascade_output_stagnation_epochs=12
cascade_candidate_change_fraction=0.010000
cascade_candidate_stagnation_epochs=12
cascade_max_out_epochs=150
cascade_min_out_epochs=50
cascade_max_cand_epochs=150
cascade_min_cand_epochs=50
cascade_num_candidate_groups=2
bit_fail_limit=3.49999994039535522461e-01
cascade_candidate_limit=1.00000000000000000000e+03
cascade_weight_multiplier=4.00000005960464477539e-01
cascade_activation_functions_count=10
cascade_activation_functions=3 5 7 8 10 11 14 15 16 17 
cascade_activation_steepnesses_count=4
cascade_activation_steepnesses=2.50000000000000000000e-01 5.00000000000000000000e-01 7.50000000000000000000e-01 1.00000000000000000000e+00 
layer_sizes=4 10 4 
scale_included=0
neurons (num_inputs, activation_function, activation_steepness)=(0, 0, 0.00000000000000000000e+00) (0, 0, 0.00000000000000000000e+00) (0, 0, 0.00000000000000000000e+00) (0, 0, 0.00000000000000000000e+00) (4, 5, 5.00000000000000000000e-01) (4, 5, 5.00000000000000000000e-01) (4, 5, 5.00000000000000000000e-01) (4, 5, 5.00000000000000000000e-01) (4, 5, 5.00000000000000000000e-01) (4, 5, 5.00000000000000000000e-01) (4, 5, 5.00000000000000000000e-01) (4, 5, 5.00000000000000000000e-01) (4, 5, 5.00000000000000000000e-01) (0, 5, 0.00000000000000000000e+00) (10, 5, 5.00000000000000000000e-01) (10, 5, 5.00000000000000000000e-01) (10, 5, 5.00000000000000000000e-01) (0, 5, 0.00000000000000000000e+00) 
connections (connected_to_neuron, weight)=(0, -1.14443750381469726562e+01) (1, 6.65592610836029052734e-01) (2, -7.11214900016784667969e-01) (3, 1.62822604179382324219e+00) (0, 8.01955699920654296875e-01) (1, 8.88871312141418457031e-01) (2, -2.00910985469818115234e-01) (3, -5.57159543037414550781e-01) (0, 7.55081772804260253906e-01) (1, 7.04097390174865722656e-01) (2, -5.97305774688720703125e-01) (3, -4.90092545747756958008e-01) (0, 5.46057224273681640625e-01) (1, -5.38376569747924804688e-02) (2, -2.26535182446241378784e-02) (3, -7.72155225276947021484e-01) (0, 2.90589737892150878906e+00) (1, -2.08073332905769348145e-01) (2, 1.00409317016601562500e+00) (3, -9.58049714565277099609e-01) (0, -1.83678969740867614746e-01) (1, 2.61218023300170898438e+00) (2, -2.93254041671752929688e+00) (3, -6.47779226303100585938e-01) (0, 4.38818693161010742188e-01) (1, -1.85933637619018554688e+00) (2, 4.37857007980346679688e+00) (3, 1.65114498138427734375e+00) (0, -3.57077091932296752930e-01) (1, 2.53100252151489257812e+00) (2, -2.96141767501831054688e+00) (3, -5.87743639945983886719e-01) (0, -2.31903004646301269531e+00) (1, 7.82894790172576904297e-01) (2, -5.80128550529479980469e-01) (3, 2.89585709571838378906e-01) (4, 7.52360057830810546875e+00) (5, 4.91166305541992187500e+00) (6, 8.44470798969268798828e-01) (7, 8.82189273834228515625e+00) (8, 1.83463287353515625000e+00) (9, 1.05844116210937500000e+00) (10, -8.05435943603515625000e+01) (11, 1.01508939266204833984e+00) (12, 5.53066329956054687500e+01) (13, -4.12097978591918945312e+00) (4, -5.59620428085327148438e+00) (5, 1.35675287246704101562e+01) (6, 2.33274149894714355469e+00) (7, 1.27639043331146240234e+00) (8, 1.64362871646881103516e+00) (9, 2.53457427024841308594e-01) (10, 5.52452266216278076172e-01) (11, -2.80965775251388549805e-01) (12, -5.50400161743164062500e+01) (13, -5.48175990581512451172e-01) (4, 7.66864776611328125000e+00) (5, -1.09862289428710937500e+02) (6, -4.82629661560058593750e+01) (7, -2.77365714311599731445e-01) (8, 4.85154569149017333984e-01) (9, -3.09125728607177734375e+01) (10, 2.00375480651855468750e+01) (11, -1.32082977294921875000e+01) (12, 7.05474185943603515625e+00) (13, 2.68453687429428100586e-01) 
