FANN_FLO_2.1
num_layers=3
learning_rate=0.700000
connection_rate=1.000000
network_type=0
learning_momentum=0.000000
training_algorithm=2
train_error_function=1
train_stop_function=0
cascade_output_change_fraction=0.010000
quickprop_decay=-0.000100
quickprop_mu=1.750000
rprop_increase_factor=1.200000
rprop_decrease_factor=0.500000
rprop_delta_min=0.000000
rprop_delta_max=50.000000
rprop_delta_zero=0.100000
cascade_output_stagnation_epochs=12
cascade_candidate_change_fraction=0.010000
cascade_candidate_stagnation_epochs=12
cascade_max_out_epochs=150
cascade_min_out_epochs=50
cascade_max_cand_epochs=150
cascade_min_cand_epochs=50
cascade_num_candidate_groups=2
bit_fail_limit=3.49999994039535522461e-01
cascade_candidate_limit=1.00000000000000000000e+03
cascade_weight_multiplier=4.00000005960464477539e-01
cascade_activation_functions_count=10
cascade_activation_functions=3 5 7 8 10 11 14 15 16 17 
cascade_activation_steepnesses_count=4
cascade_activation_steepnesses=2.50000000000000000000e-01 5.00000000000000000000e-01 7.50000000000000000000e-01 1.00000000000000000000e+00 
layer_sizes=4 10 5 
scale_included=0
neurons (num_inputs, activation_function, activation_steepness)=(0, 0, 0.00000000000000000000e+00) (0, 0, 0.00000000000000000000e+00) (0, 0, 0.00000000000000000000e+00) (0, 0, 0.00000000000000000000e+00) (4, 5, 5.00000000000000000000e-01) (4, 5, 5.00000000000000000000e-01) (4, 5, 5.00000000000000000000e-01) (4, 5, 5.00000000000000000000e-01) (4, 5, 5.00000000000000000000e-01) (4, 5, 5.00000000000000000000e-01) (4, 5, 5.00000000000000000000e-01) (4, 5, 5.00000000000000000000e-01) (4, 5, 5.00000000000000000000e-01) (0, 5, 0.00000000000000000000e+00) (10, 5, 5.00000000000000000000e-01) (10, 5, 5.00000000000000000000e-01) (10, 5, 5.00000000000000000000e-01) (10, 5, 5.00000000000000000000e-01) (0, 5, 0.00000000000000000000e+00) 
connections (connected_to_neuron, weight)=(0, 5.15101766586303710938e+00) (1, 1.11605377197265625000e+01) (2, -1.10527515411376953125e+00) (3, 1.72924482822418212891e+00) (0, -1.45684635639190673828e+00) (1, 1.01044094562530517578e+00) (2, 3.23191976547241210938e+00) (3, 2.58317798376083374023e-01) (0, -1.84116630554199218750e+01) (1, 1.42116928100585937500e+01) (2, -6.21018886566162109375e+00) (3, 1.66622236371040344238e-01) (0, 1.00709676742553710938e+00) (1, -1.26783347129821777344e+00) (2, 1.47834241390228271484e+00) (3, 7.83184543251991271973e-02) (0, 9.83491063117980957031e-01) (1, -1.71430337429046630859e+00) (2, 8.96182417869567871094e-01) (3, 6.99290260672569274902e-02) (0, 5.91689109802246093750e-01) (1, -1.79558587074279785156e+00) (2, 1.46675050258636474609e+00) (3, 9.61733087897300720215e-02) (0, 3.97547364234924316406e+00) (1, 5.12793706730008125305e-03) (2, 5.87615013122558593750e+00) (3, 1.33835101127624511719e+00) (0, 1.01623525619506835938e+01) (1, -8.28755664825439453125e+00) (2, 1.25400328636169433594e+00) (3, 1.49949729442596435547e+00) (0, 7.12849330902099609375e+00) (1, 1.51560180664062500000e+02) (2, 1.89423769712448120117e-01) (3, 1.83307909965515136719e+00) (4, 2.06589431762695312500e+01) (5, 3.63385192871093750000e+02) (6, 5.66991920471191406250e+01) (7, 4.05572174072265625000e+02) (8, 1.49986047363281250000e+03) (9, 1.49986047363281250000e+03) (10, -9.21161560058593750000e+02) (11, -8.97794738769531250000e+02) (12, 5.49243469238281250000e+02) (13, 5.54005187988281250000e+02) (4, -2.20236256718635559082e-01) (5, 5.64818603515625000000e+02) (6, 1.88372516632080078125e+01) (7, -4.90663375854492187500e+01) (8, -2.98620166778564453125e+01) (9, -8.48843455314636230469e-01) (10, 3.02664062500000000000e+02) (11, -1.62249542236328125000e+02) (12, -5.52445831298828125000e+01) (13, -5.52846984863281250000e+01) (4, -9.29660737514495849609e-01) (5, -1.62862796783447265625e+01) (6, 6.70778503417968750000e+01) (7, 5.82270202636718750000e+01) (8, 1.98773071289062500000e+02) (9, 3.63685569763183593750e+01) (10, -8.95186042785644531250e+00) (11, 4.12654800415039062500e+01) (12, -8.65855395793914794922e-01) (13, -2.32538983225822448730e-01) (4, 2.39349365234375000000e+00) (5, -1.05350598144531250000e+03) (6, -2.79259071350097656250e+01) (7, 8.82942077636718750000e+02) (8, 1.26804211425781250000e+03) (9, 3.91313552856445312500e+01) (10, 1.56827106475830078125e+01) (11, 1.73194656372070312500e+01) (12, 5.44676361083984375000e+01) (13, 5.46970748901367187500e+01) 
