FANN_FLO_2.1
num_layers=3
learning_rate=0.700000
connection_rate=1.000000
network_type=0
learning_momentum=0.000000
training_algorithm=2
train_error_function=1
train_stop_function=0
cascade_output_change_fraction=0.010000
quickprop_decay=-0.000100
quickprop_mu=1.750000
rprop_increase_factor=1.200000
rprop_decrease_factor=0.500000
rprop_delta_min=0.000000
rprop_delta_max=50.000000
rprop_delta_zero=0.100000
cascade_output_stagnation_epochs=12
cascade_candidate_change_fraction=0.010000
cascade_candidate_stagnation_epochs=12
cascade_max_out_epochs=150
cascade_min_out_epochs=50
cascade_max_cand_epochs=150
cascade_min_cand_epochs=50
cascade_num_candidate_groups=2
bit_fail_limit=3.49999994039535522461e-01
cascade_candidate_limit=1.00000000000000000000e+03
cascade_weight_multiplier=4.00000005960464477539e-01
cascade_activation_functions_count=10
cascade_activation_functions=3 5 7 8 10 11 14 15 16 17 
cascade_activation_steepnesses_count=4
cascade_activation_steepnesses=2.50000000000000000000e-01 5.00000000000000000000e-01 7.50000000000000000000e-01 1.00000000000000000000e+00 
layer_sizes=4 10 4 
scale_included=0
neurons (num_inputs, activation_function, activation_steepness)=(0, 0, 0.00000000000000000000e+00) (0, 0, 0.00000000000000000000e+00) (0, 0, 0.00000000000000000000e+00) (0, 0, 0.00000000000000000000e+00) (4, 5, 5.00000000000000000000e-01) (4, 5, 5.00000000000000000000e-01) (4, 5, 5.00000000000000000000e-01) (4, 5, 5.00000000000000000000e-01) (4, 5, 5.00000000000000000000e-01) (4, 5, 5.00000000000000000000e-01) (4, 5, 5.00000000000000000000e-01) (4, 5, 5.00000000000000000000e-01) (4, 5, 5.00000000000000000000e-01) (0, 5, 0.00000000000000000000e+00) (10, 5, 5.00000000000000000000e-01) (10, 5, 5.00000000000000000000e-01) (10, 5, 5.00000000000000000000e-01) (0, 5, 0.00000000000000000000e+00) 
connections (connected_to_neuron, weight)=(0, 4.92501525878906250000e+01) (1, -2.56042098999023437500e+01) (2, 2.38587260246276855469e+00) (3, 4.83603864908218383789e-01) (0, 1.28058445453643798828e+00) (1, 5.65396785736083984375e-01) (2, 9.17046010494232177734e-01) (3, 1.11096179485321044922e+00) (0, -4.76833581924438476562e+00) (1, -4.30614471435546875000e+02) (2, 4.78659200668334960938e+00) (3, -4.45996368408203125000e+02) (0, 9.33364200592041015625e+00) (1, -1.79754650592803955078e+00) (2, 1.99664151668548583984e+00) (3, 9.47199940681457519531e-01) (0, 1.23690712451934814453e+00) (1, -1.35429656505584716797e+00) (2, 1.93035042285919189453e+00) (3, -3.88734519481658935547e-01) (0, -1.52740173339843750000e+01) (1, 1.93871068954467773438e+00) (2, -4.30590540170669555664e-01) (3, 8.69635939598083496094e-01) (0, 6.70991039276123046875e+00) (1, -3.28556799888610839844e+00) (2, 2.66100764274597167969e+00) (3, 5.26909410953521728516e-01) (0, 3.37576508522033691406e+00) (1, -2.88492053747177124023e-01) (2, 2.55687713623046875000e+00) (3, -5.17134785652160644531e-01) (0, 1.34116363525390625000e+00) (1, 6.36265554931014776230e-04) (2, 1.72267377376556396484e-01) (3, 5.14440178871154785156e-01) (4, 4.03519210815429687500e+01) (5, 3.07874546051025390625e+01) (6, 1.57526140213012695312e+01) (7, 5.45339111328125000000e+02) (8, 1.60431003570556640625e+01) (9, 1.50000000000000000000e+03) (10, 1.75403625488281250000e+02) (11, 4.75774291992187500000e+02) (12, 3.09192047119140625000e+01) (13, 8.21080017089843750000e+01) (4, -2.24124183654785156250e+01) (5, -7.14497506618499755859e-01) (6, 1.35071249008178710938e+01) (7, -1.92044034600257873535e-01) (8, 4.04285717010498046875e+00) (9, -6.19334220886230468750e+01) (10, -8.77214050292968750000e+00) (11, 1.65663185119628906250e+01) (12, 3.66923050023615360260e-03) (13, -3.12165796756744384766e-01) (4, 1.50000000000000000000e+03) (5, 1.50000000000000000000e+03) (6, 1.50000000000000000000e+03) (7, 1.50000000000000000000e+03) (8, 1.50000000000000000000e+03) (9, 1.50000000000000000000e+03) (10, 1.50000000000000000000e+03) (11, 1.50000000000000000000e+03) (12, 1.50000000000000000000e+03) (13, 1.50000000000000000000e+03) 
