FANN_FLO_2.1
num_layers=3
learning_rate=0.700000
connection_rate=1.000000
network_type=0
learning_momentum=0.000000
training_algorithm=2
train_error_function=1
train_stop_function=0
cascade_output_change_fraction=0.010000
quickprop_decay=-0.000100
quickprop_mu=1.750000
rprop_increase_factor=1.200000
rprop_decrease_factor=0.500000
rprop_delta_min=0.000000
rprop_delta_max=50.000000
rprop_delta_zero=0.100000
cascade_output_stagnation_epochs=12
cascade_candidate_change_fraction=0.010000
cascade_candidate_stagnation_epochs=12
cascade_max_out_epochs=150
cascade_min_out_epochs=50
cascade_max_cand_epochs=150
cascade_min_cand_epochs=50
cascade_num_candidate_groups=2
bit_fail_limit=3.49999994039535522461e-01
cascade_candidate_limit=1.00000000000000000000e+03
cascade_weight_multiplier=4.00000005960464477539e-01
cascade_activation_functions_count=10
cascade_activation_functions=3 5 7 8 10 11 14 15 16 17 
cascade_activation_steepnesses_count=4
cascade_activation_steepnesses=2.50000000000000000000e-01 5.00000000000000000000e-01 7.50000000000000000000e-01 1.00000000000000000000e+00 
layer_sizes=56 10 4 
scale_included=0
neurons (num_inputs, activation_function, activation_steepness)=(0, 0, 0.00000000000000000000e+00) (0, 0, 0.00000000000000000000e+00) (0, 0, 0.00000000000000000000e+00) (0, 0, 0.00000000000000000000e+00) (0, 0, 0.00000000000000000000e+00) (0, 0, 0.00000000000000000000e+00) (0, 0, 0.00000000000000000000e+00) (0, 0, 0.00000000000000000000e+00) (0, 0, 0.00000000000000000000e+00) (0, 0, 0.00000000000000000000e+00) (0, 0, 0.00000000000000000000e+00) (0, 0, 0.00000000000000000000e+00) (0, 0, 0.00000000000000000000e+00) (0, 0, 0.00000000000000000000e+00) (0, 0, 0.00000000000000000000e+00) (0, 0, 0.00000000000000000000e+00) (0, 0, 0.00000000000000000000e+00) (0, 0, 0.00000000000000000000e+00) (0, 0, 0.00000000000000000000e+00) (0, 0, 0.00000000000000000000e+00) (0, 0, 0.00000000000000000000e+00) (0, 0, 0.00000000000000000000e+00) (0, 0, 0.00000000000000000000e+00) (0, 0, 0.00000000000000000000e+00) (0, 0, 0.00000000000000000000e+00) (0, 0, 0.00000000000000000000e+00) (0, 0, 0.00000000000000000000e+00) (0, 0, 0.00000000000000000000e+00) (0, 0, 0.00000000000000000000e+00) (0, 0, 0.00000000000000000000e+00) (0, 0, 0.00000000000000000000e+00) (0, 0, 0.00000000000000000000e+00) (0, 0, 0.00000000000000000000e+00) (0, 0, 0.00000000000000000000e+00) (0, 0, 0.00000000000000000000e+00) (0, 0, 0.00000000000000000000e+00) (0, 0, 0.00000000000000000000e+00) (0, 0, 0.00000000000000000000e+00) (0, 0, 0.00000000000000000000e+00) (0, 0, 0.00000000000000000000e+00) (0, 0, 0.00000000000000000000e+00) (0, 0, 0.00000000000000000000e+00) (0, 0, 0.00000000000000000000e+00) (0, 0, 0.00000000000000000000e+00) (0, 0, 0.00000000000000000000e+00) (0, 0, 0.00000000000000000000e+00) (0, 0, 0.00000000000000000000e+00) (0, 0, 0.00000000000000000000e+00) (0, 0, 0.00000000000000000000e+00) (0, 0, 0.00000000000000000000e+00) (0, 0, 0.00000000000000000000e+00) (0, 0, 0.00000000000000000000e+00) (0, 0, 0.00000000000000000000e+00) (0, 0, 0.00000000000000000000e+00) (0, 0, 0.00000000000000000000e+00) (0, 0, 0.00000000000000000000e+00) (56, 5, 5.00000000000000000000e-01) (56, 5, 5.00000000000000000000e-01) (56, 5, 5.00000000000000000000e-01) (56, 5, 5.00000000000000000000e-01) (56, 5, 5.00000000000000000000e-01) (56, 5, 5.00000000000000000000e-01) (56, 5, 5.00000000000000000000e-01) (56, 5, 5.00000000000000000000e-01) (56, 5, 5.00000000000000000000e-01) (0, 5, 0.00000000000000000000e+00) (10, 5, 5.00000000000000000000e-01) (10, 5, 5.00000000000000000000e-01) (10, 5, 5.00000000000000000000e-01) (0, 5, 0.00000000000000000000e+00) 
connections (connected_to_neuron, weight)=(0, 8.06357002258300781250e+00) (1, 1.83954410552978515625e+01) (2, -4.86890136718750000000e+02) (3, 8.05679035186767578125e+00) (4, -5.21819839477539062500e+01) (5, -8.65399108886718750000e+02) (6, 1.59751602172851562500e+02) (7, 3.08567256927490234375e+01) (8, 1.15005630493164062500e+02) (9, 1.75762863159179687500e+02) (10, -4.39027976989746093750e+01) (11, -1.13016974925994873047e+00) (12, 1.04170441627502441406e+00) (13, -9.54376578330993652344e-01) (14, -2.63252349853515625000e+02) (15, -7.01300354003906250000e+02) (16, 5.62974452972412109375e+00) (17, -7.40065078735351562500e+01) (18, 3.04836916923522949219e+00) (19, -3.05814132690429687500e+01) (20, -1.07601583003997802734e+00) (21, 1.14821100234985351562e+00) (22, -9.58445370197296142578e-01) (23, -1.58577224731445312500e+02) (24, -7.01379821777343750000e+02) (25, 6.02319908142089843750e+00) (26, -7.40602722167968750000e+01) (27, 3.16914343833923339844e+00) (28, 1.31097335815429687500e+02) (29, 3.79362750053405761719e+00) (30, -3.76267701387405395508e-01) (31, 2.10515737533569335938e+00) (32, -5.89155554771423339844e-01) (33, -3.59138071537017822266e-01) (34, -1.80710628628730773926e-01) (35, -1.50000000000000000000e+03) (36, 1.57472629547119140625e+01) (37, 1.06818127441406250000e+03) (38, 1.80870323181152343750e+01) (39, 1.18443059921264648438e+00) (40, 3.85496735572814941406e+00) (41, 3.82302194833755493164e-01) (42, 3.12977886199951171875e+00) (43, 1.01926219463348388672e+00) (44, 8.20133850097656250000e+02) (45, 2.13915348052978515625e+01) (46, 8.59448608398437500000e+02) (47, 2.20641613006591796875e+00) (48, 1.00107660293579101562e+01) (49, 6.08608461916446685791e-02) (50, -2.06494554877281188965e-02) (51, -1.55654799938201904297e+00) (52, 6.62634521722793579102e-02) (53, 2.29367492675781250000e+02) (54, 1.33199281692504882812e+01) (55, -2.15502709150314331055e-01) (0, 4.92062377929687500000e+00) (1, 2.39347839355468750000e+01) (2, 1.50000000000000000000e+03) (3, 4.99316930770874023438e+00) (4, 1.26976635742187500000e+03) (5, 1.17639831542968750000e+03) (6, 1.38619140625000000000e+03) (7, 3.77921630859375000000e+02) (8, 1.12130027770996093750e+02) (9, 2.14936065673828125000e+01) (10, 2.10464401245117187500e+02) (11, -5.92094604492187500000e+02) (12, 5.97533893585205078125e+00) (13, -3.53871643066406250000e+02) (14, -5.52675781250000000000e+01) (15, 1.60908198356628417969e+00) (16, -1.34352598190307617188e+01) (17, 3.79932281494140625000e+02) (18, 8.80733430385589599609e-01) (19, 2.10586685180664062500e+02) (20, -5.91967773437500000000e+02) (21, 5.97976732254028320312e+00) (22, -3.53806579589843750000e+02) (23, -1.21913967132568359375e+01) (24, -9.72320365905761718750e+00) (25, -1.34758749008178710938e+01) (26, 3.80033081054687500000e+02) (27, 7.67692863941192626953e-01) (28, 3.54685935974121093750e+01) (29, 6.50653505325317382812e+00) (30, -1.64952337741851806641e-01) (31, 1.04044878482818603516e+00) (32, -5.09693622589111328125e-01) (33, -1.44906401634216308594e+00) (34, 2.61812269687652587891e-01) (35, 7.64401550292968750000e+02) (36, 3.76583313941955566406e+00) (37, -7.95841003417968750000e+02) (38, 1.66634786128997802734e+00) (39, -1.02850885391235351562e+01) (40, 6.56930112838745117188e+00) (41, 1.35353314876556396484e+00) (42, 1.84930491447448730469e+00) (43, 1.64492690563201904297e+00) (44, 4.21450958251953125000e+01) (45, 2.12200584411621093750e+01) (46, 2.69420127868652343750e+01) (47, 1.54558098316192626953e+00) (48, 1.42219138145446777344e+00) (49, 1.16657900810241699219e+00) (50, 6.67193591594696044922e-01) (51, 7.60225713253021240234e-01) (52, 9.19994652271270751953e-01) (53, 1.95169754028320312500e+02) (54, 2.00362243652343750000e+01) (55, -6.05909287929534912109e-01) (0, 2.69575977325439453125e+00) (1, 6.06670303344726562500e+01) (2, 7.77715515136718750000e+02) (3, 4.29791879653930664062e+00) (4, 1.15416412353515625000e+02) (5, 1.30270019531250000000e+02) (6, 4.53972076416015625000e+02) (7, 7.61418075561523437500e+01) (8, 6.16363296508789062500e+01) (9, 8.49986457824707031250e+00) (10, 1.07219772338867187500e+02) (11, -4.02571582794189453125e+00) (12, 1.56266593933105468750e+00) (13, -2.75450968742370605469e+00) (14, -2.23801666259765625000e+02) (15, -2.50388002395629882812e+00) (16, -1.06640939712524414062e+01) (17, -9.65822887420654296875e+00) (18, 1.03986251354217529297e+00) (19, 1.07324897766113281250e+02) (20, -4.12539672851562500000e+00) (21, 1.50370109081268310547e+00) (22, -1.58891403675079345703e+00) (23, -1.59998077392578125000e+02) (24, -2.58978700637817382812e+00) (25, -1.06296606063842773438e+01) (26, -9.44471073150634765625e+00) (27, 1.13143813610076904297e+00) (28, 9.70725402832031250000e+01) (29, 6.47151851654052734375e+00) (30, -1.05858808383345603943e-02) (31, 1.11758542060852050781e+00) (32, -8.16024541854858398438e-01) (33, -3.96249324083328247070e-01) (34, -5.53808026015758514404e-02) (35, -1.81182785034179687500e+02) (36, 2.19240303039550781250e+01) (37, -1.04290113449096679688e+01) (38, 1.39994087219238281250e+01) (39, -2.17703908681869506836e-01) (40, 2.81370282173156738281e+00) (41, 2.74189084768295288086e-01) (42, 1.55466139316558837891e+00) (43, 1.20403695106506347656e+00) (44, 8.71144561767578125000e+01) (45, 4.58473625183105468750e+01) (46, 6.96281555175781250000e+02) (47, 2.82811427116394042969e+00) (48, 4.57555532455444335938e+00) (49, 8.99527147412300109863e-02) (50, -1.17869697511196136475e-01) (51, -5.32152056694030761719e-01) (52, -4.16633151471614837646e-02) (53, 3.11279022216796875000e+02) (54, 4.71633911132812500000e+00) (55, -1.16370305418968200684e-01) (0, 3.58271980285644531250e+00) (1, 2.82151947021484375000e+01) (2, -4.51780639648437500000e+02) (3, 6.98034715652465820312e+00) (4, -9.95812377929687500000e+01) (5, -8.14101745605468750000e+02) (6, 1.42565246582031250000e+02) (7, 4.62602958679199218750e+01) (8, 1.18325370788574218750e+02) (9, 8.26098785400390625000e+01) (10, -3.63600921630859375000e+01) (11, -9.79703664779663085938e-01) (12, 1.04718518257141113281e+00) (13, -8.56243669986724853516e-01) (14, -3.12888164520263671875e+01) (15, -1.93629333496093750000e+02) (16, 7.23164176940917968750e+00) (17, -3.11076488494873046875e+01) (18, 2.48406648635864257812e+00) (19, -3.64243888854980468750e+01) (20, -8.03687095642089843750e-01) (21, 9.54225003719329833984e-01) (22, -9.76113080978393554688e-01) (23, -5.05256118774414062500e+01) (24, -4.89344421386718750000e+02) (25, 7.16132354736328125000e+00) (26, -3.11315650939941406250e+01) (27, 2.44168400764465332031e+00) (28, 1.38104736328125000000e+02) (29, 4.47157335281372070312e+00) (30, -1.21564066410064697266e+00) (31, 3.08799004554748535156e+00) (32, -4.73531603813171386719e-01) (33, 8.39954763650894165039e-02) (34, 2.36036151647567749023e-01) (35, -1.33358532714843750000e+03) (36, 1.46290292739868164062e+01) (37, 8.13743041992187500000e+02) (38, 4.15561637878417968750e+01) (39, 4.55580383539199829102e-01) (40, 3.95479941368103027344e+00) (41, 4.06130403280258178711e-01) (42, 7.16188859939575195312e+00) (43, 1.86382687091827392578e+00) (44, 6.40178222656250000000e+02) (45, 3.20749244689941406250e+01) (46, 1.08314404296875000000e+03) (47, 4.34553861618041992188e+00) (48, 8.90590476989746093750e+00) (49, 1.61717087030410766602e-01) (50, -9.58821699023246765137e-02) (51, -1.53762829303741455078e+00) (52, 3.38340193033218383789e-01) (53, 3.01076690673828125000e+02) (54, 1.29792861938476562500e+01) (55, -1.17487423121929168701e-01) (0, 2.36362075805664062500e+00) (1, -8.83663082122802734375e+00) (2, 1.20407922363281250000e+03) (3, -1.72541558742523193359e-01) (4, 5.63611938476562500000e+02) (5, 6.58039611816406250000e+02) (6, 8.27967651367187500000e+02) (7, 3.32412452697753906250e+01) (8, 9.06300506591796875000e+01) (9, -1.70671665668487548828e+00) (10, 4.19807243347167968750e+01) (11, -1.94406387329101562500e+02) (12, 1.13505493164062500000e+02) (13, -8.48863372802734375000e+01) (14, -3.79942512512207031250e+00) (15, 5.54802536964416503906e-01) (16, -3.22461581230163574219e+00) (17, 6.85037109375000000000e+02) (18, 1.52262353897094726562e+00) (19, 1.73357620239257812500e+01) (20, -1.94499191284179687500e+02) (21, 1.13631690979003906250e+02) (22, -8.49941406250000000000e+01) (23, 3.32332074642181396484e-01) (24, 4.75471645593643188477e-01) (25, -3.17752504348754882812e+00) (26, 6.85061401367187500000e+02) (27, 1.53115916252136230469e+00) (28, -1.04907989501953125000e+01) (29, 3.50457334518432617188e+00) (30, 3.54927182197570800781e+00) (31, 3.03027927875518798828e-01) (32, -2.64320850372314453125e+00) (33, -1.41899919509887695312e+01) (34, -5.95970928668975830078e-01) (35, 1.10595283508300781250e+02) (36, 1.15523176193237304688e+01) (37, -9.43342163085937500000e+02) (38, 1.14148449897766113281e+00) (39, -1.98990936279296875000e+02) (40, 3.65502715110778808594e+00) (41, 1.24919891357421875000e+00) (42, 1.17751872539520263672e+00) (43, 3.48858833312988281250e+00) (44, -1.78430759906768798828e+00) (45, 1.32449045181274414062e+01) (46, -4.38750952482223510742e-01) (47, 1.25764894485473632812e+00) (48, -2.70454764366149902344e-01) (49, 8.65660369396209716797e-01) (50, 7.61570215225219726562e-01) (51, 6.55021965503692626953e-01) (52, 7.79011666774749755859e-01) (53, 7.19650793075561523438e+00) (54, 1.77156448364257812500e+01) (55, 1.88538134098052978516e+00) (0, 2.54955720901489257812e+00) (1, 1.83335475921630859375e+01) (2, 1.47707995605468750000e+03) (3, 1.52485942840576171875e+00) (4, 1.36815747070312500000e+03) (5, 1.50000000000000000000e+03) (6, 1.46152490234375000000e+03) (7, 3.27495697021484375000e+02) (8, 5.86115661621093750000e+02) (9, -1.33265167236328125000e+02) (10, 3.29386657714843750000e+02) (11, -7.22949096679687500000e+02) (12, 4.31410980224609375000e+00) (13, -3.60191619873046875000e+02) (14, -3.95209381103515625000e+02) (15, 1.35858020782470703125e+01) (16, -3.71588500976562500000e+02) (17, 1.27344352722167968750e+02) (18, 7.65382826328277587891e-01) (19, 3.25725189208984375000e+02) (20, -7.22982910156250000000e+02) (21, 5.12036609649658203125e+00) (22, -4.60295288085937500000e+02) (23, -2.81457347869873046875e+01) (24, 1.35595569610595703125e+01) (25, -3.71524200439453125000e+02) (26, 1.27198585510253906250e+02) (27, 7.97339260578155517578e-01) (28, -1.34172470092773437500e+02) (29, 7.02566719055175781250e+00) (30, 6.88058510422706604004e-02) (31, 7.10035026073455810547e-01) (32, -1.39545238018035888672e+00) (33, -1.59922683238983154297e+00) (34, -1.55084192752838134766e+00) (35, 3.21220245361328125000e+02) (36, 6.41947650909423828125e+00) (37, -4.75654449462890625000e+02) (38, -8.06495857238769531250e+00) (39, -1.09509277343750000000e+01) (40, 6.14835834503173828125e+00) (41, 1.50455093383789062500e+00) (42, 7.09504008293151855469e-01) (43, 2.64247059822082519531e+00) (44, -1.72431259155273437500e+02) (45, 5.18599319458007812500e+00) (46, -1.13829101562500000000e+02) (47, 1.34135353565216064453e+00) (48, 7.14790463447570800781e-01) (49, 8.76023888587951660156e-01) (50, -1.21465995907783508301e-01) (51, -1.80303588509559631348e-01) (52, 6.89085483551025390625e-01) (53, 3.12433300018310546875e+01) (54, 6.28825807571411132812e+00) (55, 3.12959104776382446289e-01) (0, 3.36533522605895996094e+00) (1, 1.04454421997070312500e+01) (2, 1.12075268554687500000e+03) (3, 4.89941978454589843750e+00) (4, 3.75528472900390625000e+02) (5, 4.88238891601562500000e+02) (6, 1.04642456054687500000e+03) (7, 2.17812545776367187500e+02) (8, 5.75924301147460937500e+01) (9, -7.96083545684814453125e+00) (10, 2.28839797973632812500e+02) (11, -2.08254337310791015625e+00) (12, 1.03129720687866210938e+00) (13, -1.71155464649200439453e+00) (14, -3.68294143676757812500e+01) (15, 3.27885780334472656250e+01) (16, -4.60897302627563476562e+00) (17, 1.91164150238037109375e+01) (18, 1.64347231388092041016e+00) (19, 1.96204772949218750000e+02) (20, -2.25344657897949218750e+00) (21, 1.10719943046569824219e+00) (22, -1.63149452209472656250e+00) (23, -2.48643836975097656250e+01) (24, 3.28808059692382812500e+01) (25, -4.55797195434570312500e+00) (26, 1.91745510101318359375e+01) (27, 1.79377853870391845703e+00) (28, 9.48195419311523437500e+01) (29, 2.77079677581787109375e+00) (30, -9.66808423399925231934e-02) (31, 2.34737706184387207031e+00) (32, -4.40876066684722900391e-01) (33, -3.36174666881561279297e-01) (34, -3.98319095373153686523e-01) (35, -3.58725471496582031250e+01) (36, 1.68287229537963867188e+00) (37, -1.00289688110351562500e+02) (38, 5.50833034515380859375e+00) (39, 8.42343211174011230469e-01) (40, 2.68349575996398925781e+00) (41, 4.06932175159454345703e-01) (42, 1.26766586303710937500e+00) (43, 2.50338912010192871094e+00) (44, 3.91543350219726562500e+01) (45, 4.05512189865112304688e+00) (46, 1.70955535888671875000e+02) (47, 2.51120877265930175781e+00) (48, 4.11996126174926757812e+00) (49, -3.67455124855041503906e-01) (50, -4.71732050180435180664e-01) (51, -6.40397191047668457031e-01) (52, -2.71055012941360473633e-01) (53, 3.28435546875000000000e+02) (54, 2.28179001808166503906e+00) (55, -1.76543846726417541504e-01) (0, -5.05212640762329101562e+00) (1, -1.25400114059448242188e+01) (2, -5.49674316406250000000e+02) (3, -4.24137449264526367188e+00) (4, -3.35791511535644531250e+01) (5, 1.14867224121093750000e+03) (6, -1.83561309814453125000e+02) (7, -8.87373199462890625000e+01) (8, -3.74618408203125000000e+02) (9, -1.38193836212158203125e+01) (10, 1.98561553955078125000e+01) (11, 3.10101795196533203125e+00) (12, -2.67039358615875244141e-01) (13, 1.78140282630920410156e+00) (14, 6.58149719238281250000e+01) (15, 2.01034011840820312500e+02) (16, 1.12262153625488281250e+00) (17, 4.10933990478515625000e+01) (18, -7.94827401638031005859e-01) (19, 1.65821723937988281250e+01) (20, 3.07635974884033203125e+00) (21, -1.44893527030944824219e-01) (22, 1.66381561756134033203e+00) (23, 1.13574600219726562500e+02) (24, 2.06748840332031250000e+02) (25, 1.20881795883178710938e+00) (26, 4.11447372436523437500e+01) (27, -6.55175507068634033203e-01) (28, -2.18177215576171875000e+02) (29, -4.16439533233642578125e+00) (30, 2.89094090461730957031e+00) (31, -4.55933809280395507812e+00) (32, 6.88650369644165039062e-01) (33, -3.38827222585678100586e-01) (34, 3.09181272983551025391e-01) (35, 1.50000000000000000000e+03) (36, -8.75267601013183593750e+00) (37, -4.62965728759765625000e+02) (38, -2.83977546691894531250e+01) (39, 2.86808222532272338867e-01) (40, -3.91410946846008300781e+00) (41, -2.62794077396392822266e-01) (42, -1.01679372787475585938e+00) (43, -1.23388421535491943359e+00) (44, -3.42654479980468750000e+02) (45, -1.18958206176757812500e+01) (46, -4.52651733398437500000e+02) (47, -3.49919700622558593750e+00) (48, -1.53552985191345214844e+00) (49, 2.22443863749504089355e-01) (50, 1.73175200819969177246e-01) (51, 8.73985469341278076172e-01) (52, 4.53568994998931884766e-02) (53, -6.20208557128906250000e+02) (54, -5.19509410858154296875e+00) (55, 5.67383408546447753906e-01) (0, 3.17067146301269531250e+00) (1, -4.01046562194824218750e+01) (2, 5.45259765625000000000e+02) (3, -1.70650422573089599609e-01) (4, 5.58859191894531250000e+02) (5, 2.18451889038085937500e+02) (6, 8.27836853027343750000e+02) (7, 3.25009956359863281250e+01) (8, 3.03169822692871093750e+01) (9, 1.27728401184082031250e+02) (10, 1.58365020751953125000e+01) (11, -6.88361282348632812500e+01) (12, 8.95613861083984375000e+00) (13, -8.77171096801757812500e+01) (14, -3.02571606636047363281e+00) (15, -2.35395599156618118286e-03) (16, -1.48072528839111328125e+00) (17, 8.17714538574218750000e+02) (18, 5.18037939071655273438e+00) (19, 1.66040077209472656250e+01) (20, -6.88669967651367187500e+01) (21, 8.89339733123779296875e+00) (22, -8.76393280029296875000e+01) (23, -2.57773011922836303711e-01) (24, -2.37481240183115005493e-02) (25, -1.52913343906402587891e+00) (26, 4.39658905029296875000e+02) (27, 5.34447574615478515625e+00) (28, -8.42754135131835937500e+01) (29, 4.54915761947631835938e+00) (30, 1.16701054573059082031e+00) (31, 7.20324635505676269531e-01) (32, 3.77240125089883804321e-03) (33, -2.00030779838562011719e+00) (34, 1.17366328835487365723e-01) (35, 1.72031005859375000000e+02) (36, 3.16323432922363281250e+01) (37, -2.95013580322265625000e+02) (38, 1.54188728332519531250e+00) (39, -1.29107925415039062500e+02) (40, 4.73013973236083984375e+00) (41, 1.42638468742370605469e+00) (42, 1.11080646514892578125e+00) (43, 1.40326941013336181641e+00) (44, 3.06809329986572265625e+00) (45, 2.60569572448730468750e+01) (46, -9.13169920444488525391e-01) (47, 1.23605203628540039062e+00) (48, -3.33953499794006347656e-01) (49, 9.06838953495025634766e-01) (50, 9.12240087985992431641e-01) (51, 5.27851998805999755859e-01) (52, 8.23511362075805664062e-01) (53, 1.02791280746459960938e+01) (54, 1.28287134170532226562e+01) (55, 1.45414447784423828125e+00) (56, -1.96557247638702392578e+00) (57, 1.71215286254882812500e+01) (58, 2.13801589965820312500e+02) (59, -3.99269008636474609375e+00) (60, -4.00340229272842407227e-01) (61, 5.46709861755371093750e+01) (62, 2.69664337158203125000e+02) (63, -3.13591613769531250000e+02) (64, -3.96521389484405517578e-01) (65, -7.87524080276489257812e+00) (56, 4.97532039880752563477e-01) (57, -1.00124435424804687500e+01) (58, -7.47825384140014648438e+00) (59, 2.42631220817565917969e+00) (60, -1.33828771114349365234e+00) (61, -9.57080841064453125000e+01) (62, -6.29427490234375000000e+01) (63, 2.57326036691665649414e-01) (64, -7.21619188785552978516e-01) (65, -5.16319513320922851562e-01) (56, -3.16398763656616210938e+00) (57, -2.94585358351469039917e-02) (58, -2.19471321105957031250e+01) (59, -4.07021331787109375000e+00) (60, -1.15691184997558593750e-01) (61, 4.62479476928710937500e+01) (62, -7.76690292358398437500e+00) (63, 6.05137710571289062500e+01) (64, -1.45430609583854675293e-01) (65, 4.62416082620620727539e-01) 
