FANN_FLO_2.1
num_layers=3
learning_rate=0.700000
connection_rate=1.000000
network_type=0
learning_momentum=0.000000
training_algorithm=2
train_error_function=1
train_stop_function=0
cascade_output_change_fraction=0.010000
quickprop_decay=-0.000100
quickprop_mu=1.750000
rprop_increase_factor=1.200000
rprop_decrease_factor=0.500000
rprop_delta_min=0.000000
rprop_delta_max=50.000000
rprop_delta_zero=0.100000
cascade_output_stagnation_epochs=12
cascade_candidate_change_fraction=0.010000
cascade_candidate_stagnation_epochs=12
cascade_max_out_epochs=150
cascade_min_out_epochs=50
cascade_max_cand_epochs=150
cascade_min_cand_epochs=50
cascade_num_candidate_groups=2
bit_fail_limit=3.49999994039535522461e-01
cascade_candidate_limit=1.00000000000000000000e+03
cascade_weight_multiplier=4.00000005960464477539e-01
cascade_activation_functions_count=10
cascade_activation_functions=3 5 7 8 10 11 14 15 16 17 
cascade_activation_steepnesses_count=4
cascade_activation_steepnesses=2.50000000000000000000e-01 5.00000000000000000000e-01 7.50000000000000000000e-01 1.00000000000000000000e+00 
layer_sizes=4 10 5 
scale_included=0
neurons (num_inputs, activation_function, activation_steepness)=(0, 0, 0.00000000000000000000e+00) (0, 0, 0.00000000000000000000e+00) (0, 0, 0.00000000000000000000e+00) (0, 0, 0.00000000000000000000e+00) (4, 5, 5.00000000000000000000e-01) (4, 5, 5.00000000000000000000e-01) (4, 5, 5.00000000000000000000e-01) (4, 5, 5.00000000000000000000e-01) (4, 5, 5.00000000000000000000e-01) (4, 5, 5.00000000000000000000e-01) (4, 5, 5.00000000000000000000e-01) (4, 5, 5.00000000000000000000e-01) (4, 5, 5.00000000000000000000e-01) (0, 5, 0.00000000000000000000e+00) (10, 5, 5.00000000000000000000e-01) (10, 5, 5.00000000000000000000e-01) (10, 5, 5.00000000000000000000e-01) (10, 5, 5.00000000000000000000e-01) (0, 5, 0.00000000000000000000e+00) 
connections (connected_to_neuron, weight)=(0, 5.15725575387477874756e-02) (1, 9.01122242212295532227e-02) (2, 9.67715159058570861816e-02) (3, -2.99691520631313323975e-02) (0, 1.32723303977400064468e-03) (1, 1.48926591500639915466e-02) (2, -5.16337156295776367188e-02) (3, 2.80988272279500961304e-02) (0, 8.77423863857984542847e-03) (1, -7.36123397946357727051e-02) (2, -1.08107076957821846008e-02) (3, -6.95315599441528320312e-02) (0, 4.09259349107742309570e-02) (1, -7.33259916305541992188e-02) (2, -9.82791706919670104980e-02) (3, 6.21938370168209075928e-02) (0, -6.99525922536849975586e-02) (1, -5.99972940981388092041e-02) (2, 3.14378328621387481689e-02) (3, 2.48526856303215026855e-02) (0, 2.00469959527254104614e-02) (1, 2.51975934952497482300e-02) (2, 3.33870388567447662354e-02) (3, -5.87394041940569877625e-03) (0, 2.65241842716932296753e-02) (1, -1.92239228636026382446e-02) (2, -6.28059059381484985352e-02) (3, -1.79289784282445907593e-02) (0, 9.29285362362861633301e-02) (1, -4.51687723398208618164e-02) (2, 6.43428117036819458008e-02) (3, 4.45010922849178314209e-02) (0, -5.50565458834171295166e-02) (1, 6.11143223941326141357e-02) (2, -8.54680612683296203613e-02) (3, 4.62706871330738067627e-02) (4, -2.39930190145969390869e-02) (5, -3.71017754077911376953e-02) (6, -2.56304871290922164917e-02) (7, 8.47812220454216003418e-02) (8, -1.07141118496656417847e-02) (9, 6.35588094592094421387e-02) (10, -8.47503393888473510742e-02) (11, -6.97881802916526794434e-02) (12, 9.02328118681907653809e-02) (13, -8.30295085906982421875e-02) (4, 9.24056544899940490723e-02) (5, -7.97197818756103515625e-02) (6, -4.30268049240112304688e-02) (7, 2.38434877246618270874e-02) (8, 4.51329089701175689697e-02) (9, 7.70201906561851501465e-02) (10, -5.09589202702045440674e-02) (11, -2.14800518006086349487e-02) (12, -2.88537479937076568604e-02) (13, 7.55652636289596557617e-02) (4, 5.92960268259048461914e-02) (5, 8.34034662693738937378e-03) (6, -4.23637144267559051514e-02) (7, 5.22245615720748901367e-02) (8, 6.31715729832649230957e-02) (9, -7.80209079384803771973e-02) (10, -3.27434786595404148102e-03) (11, -9.18849706649780273438e-02) (12, 8.30934196710586547852e-02) (13, 1.12575916573405265808e-02) (4, 5.43857142329216003418e-02) (5, -4.08996045589447021484e-02) (6, 7.41558149456977844238e-02) (7, -7.12447762489318847656e-02) (8, -5.61183877289295196533e-02) (9, -3.65582965314388275146e-02) (10, 9.23140347003936767578e-02) (11, -4.08687293529510498047e-02) (12, -6.34647533297538757324e-03) (13, 8.25468450784683227539e-02) 
