FANN_FLO_2.1
num_layers=3
learning_rate=0.700000
connection_rate=1.000000
network_type=0
learning_momentum=0.000000
training_algorithm=2
train_error_function=1
train_stop_function=0
cascade_output_change_fraction=0.010000
quickprop_decay=-0.000100
quickprop_mu=1.750000
rprop_increase_factor=1.200000
rprop_decrease_factor=0.500000
rprop_delta_min=0.000000
rprop_delta_max=50.000000
rprop_delta_zero=0.100000
cascade_output_stagnation_epochs=12
cascade_candidate_change_fraction=0.010000
cascade_candidate_stagnation_epochs=12
cascade_max_out_epochs=150
cascade_min_out_epochs=50
cascade_max_cand_epochs=150
cascade_min_cand_epochs=50
cascade_num_candidate_groups=2
bit_fail_limit=3.49999994039535522461e-01
cascade_candidate_limit=1.00000000000000000000e+03
cascade_weight_multiplier=4.00000005960464477539e-01
cascade_activation_functions_count=10
cascade_activation_functions=3 5 7 8 10 11 14 15 16 17 
cascade_activation_steepnesses_count=4
cascade_activation_steepnesses=2.50000000000000000000e-01 5.00000000000000000000e-01 7.50000000000000000000e-01 1.00000000000000000000e+00 
layer_sizes=4 10 5 
scale_included=0
neurons (num_inputs, activation_function, activation_steepness)=(0, 0, 0.00000000000000000000e+00) (0, 0, 0.00000000000000000000e+00) (0, 0, 0.00000000000000000000e+00) (0, 0, 0.00000000000000000000e+00) (4, 5, 5.00000000000000000000e-01) (4, 5, 5.00000000000000000000e-01) (4, 5, 5.00000000000000000000e-01) (4, 5, 5.00000000000000000000e-01) (4, 5, 5.00000000000000000000e-01) (4, 5, 5.00000000000000000000e-01) (4, 5, 5.00000000000000000000e-01) (4, 5, 5.00000000000000000000e-01) (4, 5, 5.00000000000000000000e-01) (0, 5, 0.00000000000000000000e+00) (10, 5, 5.00000000000000000000e-01) (10, 5, 5.00000000000000000000e-01) (10, 5, 5.00000000000000000000e-01) (10, 5, 5.00000000000000000000e-01) (0, 5, 0.00000000000000000000e+00) 
connections (connected_to_neuron, weight)=(0, 3.36095404624938964844e+00) (1, -4.03678894042968750000e+00) (2, 3.01618874073028564453e-01) (3, 1.47459912300109863281e+00) (0, -1.27359371185302734375e+01) (1, -1.62560634613037109375e+01) (2, 3.50329351425170898438e+00) (3, 2.73785138130187988281e+00) (0, -4.99238491058349609375e+00) (1, -1.00546634197235107422e+00) (2, 3.89307945966720581055e-01) (3, 6.30992233753204345703e-01) (0, 1.72923126220703125000e+01) (1, -9.15005779266357421875e+00) (2, 2.29296016693115234375e+00) (3, -1.72869324684143066406e-01) (0, 4.59971141815185546875e+00) (1, 1.51611194014549255371e-01) (2, 6.85481965541839599609e-01) (3, 2.08945840597152709961e-01) (0, 7.66359663009643554688e+00) (1, -2.54632145166397094727e-01) (2, 1.49583840370178222656e+00) (3, 1.60684317350387573242e-01) (0, 5.76049194335937500000e+01) (1, 1.00545966625213623047e+00) (2, -6.24104022979736328125e-01) (3, -5.20051002502441406250e+00) (0, 2.67845940589904785156e+00) (1, -4.58046150207519531250e+00) (2, 5.91203570365905761719e-01) (3, 1.23717617988586425781e+00) (0, 4.35926055908203125000e+01) (1, -1.49593257904052734375e+01) (2, 1.83768033981323242188e+00) (3, -1.65296530723571777344e+00) (4, 3.93130660057067871094e+00) (5, -5.80631790161132812500e+01) (6, 1.32090942382812500000e+02) (7, 8.63198013305664062500e+01) (8, -1.84474067687988281250e+01) (9, -1.05254573822021484375e+01) (10, -4.63035049438476562500e+01) (11, 1.46144428253173828125e+01) (12, -1.80228404998779296875e+01) (13, -1.85495865345001220703e+00) (4, 4.07110261917114257812e+00) (5, -1.64970934391021728516e-01) (6, 2.95831604003906250000e+02) (7, -2.05255146026611328125e+01) (8, -3.08025035858154296875e+01) (9, -1.02956514358520507812e+01) (10, 6.09601135253906250000e+01) (11, 4.17266458272933959961e-01) (12, -1.08730554580688476562e+01) (13, -5.45693278312683105469e-01) (4, -4.14883804321289062500e+01) (5, 2.79849643707275390625e+01) (6, 1.05336753845214843750e+02) (7, -4.56625747680664062500e+01) (8, -3.51389694213867187500e+00) (9, 4.95517158508300781250e+00) (10, 6.83455200195312500000e+01) (11, -1.87869167327880859375e+01) (12, 3.15485744476318359375e+01) (13, -5.23662996292114257812e+00) (4, -2.92994728088378906250e+01) (5, 2.80822772979736328125e+01) (6, -4.57086601257324218750e+01) (7, -2.04034137725830078125e+01) (8, 1.29755973815917968750e+01) (9, 1.41534929275512695312e+01) (10, 4.65106678009033203125e+00) (11, -4.47776603698730468750e+01) (12, 5.35925598144531250000e+01) (13, -1.35892367362976074219e+00) 
