FANN_FLO_2.1
num_layers=3
learning_rate=0.700000
connection_rate=1.000000
network_type=0
learning_momentum=0.000000
training_algorithm=2
train_error_function=1
train_stop_function=0
cascade_output_change_fraction=0.010000
quickprop_decay=-0.000100
quickprop_mu=1.750000
rprop_increase_factor=1.200000
rprop_decrease_factor=0.500000
rprop_delta_min=0.000000
rprop_delta_max=50.000000
rprop_delta_zero=0.100000
cascade_output_stagnation_epochs=12
cascade_candidate_change_fraction=0.010000
cascade_candidate_stagnation_epochs=12
cascade_max_out_epochs=150
cascade_min_out_epochs=50
cascade_max_cand_epochs=150
cascade_min_cand_epochs=50
cascade_num_candidate_groups=2
bit_fail_limit=3.49999994039535522461e-01
cascade_candidate_limit=1.00000000000000000000e+03
cascade_weight_multiplier=4.00000005960464477539e-01
cascade_activation_functions_count=10
cascade_activation_functions=3 5 7 8 10 11 14 15 16 17 
cascade_activation_steepnesses_count=4
cascade_activation_steepnesses=2.50000000000000000000e-01 5.00000000000000000000e-01 7.50000000000000000000e-01 1.00000000000000000000e+00 
layer_sizes=17 10 4 
scale_included=0
neurons (num_inputs, activation_function, activation_steepness)=(0, 0, 0.00000000000000000000e+00) (0, 0, 0.00000000000000000000e+00) (0, 0, 0.00000000000000000000e+00) (0, 0, 0.00000000000000000000e+00) (0, 0, 0.00000000000000000000e+00) (0, 0, 0.00000000000000000000e+00) (0, 0, 0.00000000000000000000e+00) (0, 0, 0.00000000000000000000e+00) (0, 0, 0.00000000000000000000e+00) (0, 0, 0.00000000000000000000e+00) (0, 0, 0.00000000000000000000e+00) (0, 0, 0.00000000000000000000e+00) (0, 0, 0.00000000000000000000e+00) (0, 0, 0.00000000000000000000e+00) (0, 0, 0.00000000000000000000e+00) (0, 0, 0.00000000000000000000e+00) (0, 0, 0.00000000000000000000e+00) (17, 5, 5.00000000000000000000e-01) (17, 5, 5.00000000000000000000e-01) (17, 5, 5.00000000000000000000e-01) (17, 5, 5.00000000000000000000e-01) (17, 5, 5.00000000000000000000e-01) (17, 5, 5.00000000000000000000e-01) (17, 5, 5.00000000000000000000e-01) (17, 5, 5.00000000000000000000e-01) (17, 5, 5.00000000000000000000e-01) (0, 5, 0.00000000000000000000e+00) (10, 5, 5.00000000000000000000e-01) (10, 5, 5.00000000000000000000e-01) (10, 5, 5.00000000000000000000e-01) (0, 5, 0.00000000000000000000e+00) 
connections (connected_to_neuron, weight)=(0, 7.83090496063232421875e+00) (1, 7.96806395053863525391e-01) (2, 5.91566205024719238281e-01) (3, 1.94541856646537780762e-01) (4, 6.57163918018341064453e-01) (5, -1.05623447895050048828e+00) (6, -9.62667703628540039062e-01) (7, -7.36416935920715332031e-01) (8, 6.23333692550659179688e-01) (9, -1.70113193988800048828e+00) (10, -1.75989425182342529297e+00) (11, -5.74373304843902587891e-01) (12, -4.50490057468414306641e-01) (13, -7.78823375701904296875e+00) (14, 6.86825513839721679688e-01) (15, 5.48708625137805938721e-02) (16, -2.37914338707923889160e-01) (0, -5.12781977653503417969e-01) (1, -2.25639149546623229980e-01) (2, -2.09156125783920288086e-01) (3, 7.38586127758026123047e-01) (4, -1.33923554420471191406e+00) (5, 8.50532174110412597656e-01) (6, 1.97987043857574462891e+00) (7, 6.86016261577606201172e-01) (8, -8.67861628532409667969e-01) (9, 8.71383368968963623047e-01) (10, 1.55229592323303222656e+00) (11, 8.37100207805633544922e-01) (12, 2.00012898445129394531e+00) (13, 1.80501472949981689453e+00) (14, -1.00154781341552734375e+00) (15, 9.20170024037361145020e-02) (16, 1.32819640636444091797e+00) (0, -8.17636413574218750000e+01) (1, -9.40322697162628173828e-01) (2, -2.43556547164916992188e+00) (3, 4.50881093740463256836e-01) (4, 1.89928472042083740234e+00) (5, 1.60648298263549804688e+00) (6, 1.30608725547790527344e+00) (7, 8.72623205184936523438e-01) (8, -3.65804195404052734375e-01) (9, 6.09349107742309570312e+00) (10, 6.71789979934692382812e+00) (11, 9.64494466781616210938e-01) (12, 1.04575586318969726562e+00) (13, 2.22415566444396972656e-01) (14, -1.54877796769142150879e-01) (15, 3.06620091199874877930e-01) (16, 4.58485573530197143555e-01) (0, 8.06660652160644531250e+00) (1, -2.94357717037200927734e-01) (2, 2.13807389140129089355e-01) (3, -2.94043421745300292969e+00) (4, 4.66110181808471679688e+00) (5, -2.84384465217590332031e+00) (6, -2.94631600379943847656e+00) (7, 7.85268768668174743652e-02) (8, 1.45937204360961914062e+00) (9, 9.64631497859954833984e-01) (10, -2.13147592544555664062e+00) (11, -2.13019743561744689941e-01) (12, -2.06718683242797851562e+00) (13, 1.74716189503669738770e-02) (14, 8.71713697910308837891e-01) (15, 2.01582815498113632202e-02) (16, 1.67490765452384948730e-01) (0, -9.06685924530029296875e+00) (1, -1.10074806213378906250e+00) (2, -7.95331180095672607422e-01) (3, -3.39309424161911010742e-01) (4, -9.14626061916351318359e-01) (5, 4.06829404830932617188e+00) (6, 1.92120802402496337891e+00) (7, 8.16365420818328857422e-01) (8, -6.10246993601322174072e-02) (9, 2.64415740966796875000e+00) (10, 2.39867877960205078125e+00) (11, 1.03062379360198974609e+00) (12, 1.19994246959686279297e+00) (13, 7.83494949340820312500e-01) (14, -1.97360113263130187988e-01) (15, 6.14001452922821044922e-01) (16, 1.03454864025115966797e+00) (0, 4.23824214935302734375e+00) (1, 1.81757450103759765625e+00) (2, 4.51475322246551513672e-01) (3, 2.98272275924682617188e+00) (4, -3.35210299491882324219e+00) (5, 6.96439087390899658203e-01) (6, 1.01661622524261474609e+00) (7, 1.35568261146545410156e+00) (8, -1.03524339199066162109e+00) (9, -8.10352385044097900391e-01) (10, -1.31384149193763732910e-01) (11, 1.21362137794494628906e+00) (12, 6.19409894943237304688e+00) (13, 2.30468869209289550781e+00) (14, 2.43429355323314666748e-02) (15, 3.90913397073745727539e-01) (16, 1.04692697525024414062e+00) (0, -8.53760719299316406250e+00) (1, -3.22694873809814453125e+00) (2, -1.04040229320526123047e+00) (3, -2.05895090103149414062e+00) (4, 2.22157335281372070312e+00) (5, 5.09896636009216308594e-01) (6, 9.29869592189788818359e-01) (7, -6.93321451544761657715e-02) (8, 8.40583220124244689941e-02) (9, 8.97551059722900390625e-01) (10, 8.95358264446258544922e-01) (11, -5.19057847559452056885e-02) (12, -3.18615496158599853516e-01) (13, -6.59492254257202148438e-01) (14, 1.37853190302848815918e-01) (15, -4.75699663162231445312e-01) (16, -4.55429017543792724609e-01) (0, -5.76184129714965820312e+00) (1, 1.31637230515480041504e-01) (2, 7.24918916821479797363e-02) (3, 1.13646197319030761719e+00) (4, -1.14314496517181396484e+00) (5, 5.55882096290588378906e-01) (6, 1.19851720333099365234e+00) (7, 1.05411320924758911133e-01) (8, -8.96173954010009765625e-01) (9, 1.68053925037384033203e-01) (10, 1.22294172644615173340e-01) (11, 3.73060196638107299805e-01) (12, 2.97855168581008911133e-01) (13, 9.14359509944915771484e-01) (14, -1.18571662902832031250e+00) (15, -1.11776947975158691406e-01) (16, 3.76081764698028564453e-01) (0, 1.64228534698486328125e+01) (1, 4.64447200298309326172e-01) (2, 4.48051184415817260742e-01) (3, -3.48354548215866088867e-01) (4, 1.11965191364288330078e+00) (5, -1.03237390518188476562e+00) (6, -1.17044019699096679688e+01) (7, -2.91212387382984161377e-02) (8, 2.00596737861633300781e+00) (9, 1.03079736232757568359e+00) (10, -3.76636028289794921875e+00) (11, -1.31588912010192871094e+00) (12, -1.17189550399780273438e+01) (13, 2.87526369094848632812e-01) (14, 1.16306889057159423828e+00) (15, -2.43213444948196411133e-01) (16, -5.91695785522460937500e-01) (17, 1.23923882842063903809e-01) (18, 3.91304790973663330078e-01) (19, 2.94353991746902465820e-01) (20, -2.30935096740722656250e+00) (21, 2.17319682240486145020e-01) (22, 1.38926756381988525391e+00) (23, -5.71551382541656494141e-01) (24, 3.25605468750000000000e+01) (25, -5.75544404983520507812e+00) (26, 2.13115692138671875000e-01) (17, 1.28898835182189941406e+00) (18, -2.78502154350280761719e+00) (19, 4.21722270548343658447e-02) (20, 1.80405274033546447754e-01) (21, -4.09946113824844360352e-01) (22, -3.53341865539550781250e+01) (23, 6.72720050811767578125e+00) (24, -2.33985877037048339844e+00) (25, 1.05057574808597564697e-01) (26, -4.63395684957504272461e-01) (17, 6.41437959671020507812e+00) (18, -1.74209237098693847656e+00) (19, -1.42749547958374023438e+01) (20, 3.30333799123764038086e-01) (21, -9.85152065753936767578e-01) (22, 1.48502752184867858887e-01) (23, -1.71410274505615234375e+00) (24, -5.84191465377807617188e+00) (25, 6.16053104400634765625e+00) (26, -5.00577151775360107422e-01) 
