FANN_FLO_2.1
num_layers=3
learning_rate=0.700000
connection_rate=1.000000
network_type=0
learning_momentum=0.000000
training_algorithm=2
train_error_function=1
train_stop_function=0
cascade_output_change_fraction=0.010000
quickprop_decay=-0.000100
quickprop_mu=1.750000
rprop_increase_factor=1.200000
rprop_decrease_factor=0.500000
rprop_delta_min=0.000000
rprop_delta_max=50.000000
rprop_delta_zero=0.100000
cascade_output_stagnation_epochs=12
cascade_candidate_change_fraction=0.010000
cascade_candidate_stagnation_epochs=12
cascade_max_out_epochs=150
cascade_min_out_epochs=50
cascade_max_cand_epochs=150
cascade_min_cand_epochs=50
cascade_num_candidate_groups=2
bit_fail_limit=3.49999994039535522461e-01
cascade_candidate_limit=1.00000000000000000000e+03
cascade_weight_multiplier=4.00000005960464477539e-01
cascade_activation_functions_count=10
cascade_activation_functions=3 5 7 8 10 11 14 15 16 17 
cascade_activation_steepnesses_count=4
cascade_activation_steepnesses=2.50000000000000000000e-01 5.00000000000000000000e-01 7.50000000000000000000e-01 1.00000000000000000000e+00 
layer_sizes=2 10 4 
scale_included=0
neurons (num_inputs, activation_function, activation_steepness)=(0, 0, 0.00000000000000000000e+00) (0, 0, 0.00000000000000000000e+00) (2, 5, 5.00000000000000000000e-01) (2, 5, 5.00000000000000000000e-01) (2, 5, 5.00000000000000000000e-01) (2, 5, 5.00000000000000000000e-01) (2, 5, 5.00000000000000000000e-01) (2, 5, 5.00000000000000000000e-01) (2, 5, 5.00000000000000000000e-01) (2, 5, 5.00000000000000000000e-01) (2, 5, 5.00000000000000000000e-01) (0, 5, 0.00000000000000000000e+00) (10, 5, 5.00000000000000000000e-01) (10, 5, 5.00000000000000000000e-01) (10, 5, 5.00000000000000000000e-01) (0, 5, 0.00000000000000000000e+00) 
connections (connected_to_neuron, weight)=(0, 3.10677909851074218750e+00) (1, -3.38971227407455444336e-01) (0, 2.16891384124755859375e+00) (1, 1.06569252908229827881e-01) (0, 2.16633758544921875000e+01) (1, -2.00378489494323730469e+00) (0, 5.12917900085449218750e+00) (1, -6.38924360275268554688e-01) (0, 2.50010085105895996094e+00) (1, 4.20650154352188110352e-01) (0, 5.61322450637817382812e-01) (1, 1.92117011547088623047e+00) (0, -1.49999987792968750000e+03) (1, -1.49999963378906250000e+03) (0, 2.16152191162109375000e+00) (1, 1.06206685304641723633e-01) (0, -1.49999987792968750000e+03) (1, -1.49999963378906250000e+03) (2, 3.42475677490234375000e+02) (3, 6.67433929443359375000e+00) (4, 2.42903488159179687500e+02) (5, -1.50000000000000000000e+03) (6, 3.12467813491821289062e+00) (7, 4.23909521102905273438e+00) (8, -2.53731575012207031250e+01) (9, 6.61605119705200195312e+00) (10, 1.53856597900390625000e+02) (11, 3.67882194519042968750e+01) (2, -2.00963058471679687500e+01) (3, -5.59920578002929687500e+01) (4, 1.20748458862304687500e+02) (5, -3.03625061035156250000e+02) (6, -1.54944264888763427734e+00) (7, -5.86549520492553710938e+00) (8, 3.64754152297973632812e+00) (9, -5.59549064636230468750e+01) (10, 6.16942119598388671875e+00) (11, -3.17546033859252929688e+00) (2, 9.32921997070312500000e+02) (3, 7.08328552246093750000e+02) (4, 9.13345825195312500000e+02) (5, 1.50000000000000000000e+03) (6, 9.10414428710937500000e+02) (7, 9.27990173339843750000e+02) (8, 1.50000000000000000000e+03) (9, 7.08290161132812500000e+02) (10, 1.50000000000000000000e+03) (11, 9.28047363281250000000e+02) 
