FANN_FLO_2.1
num_layers=3
learning_rate=0.700000
connection_rate=1.000000
network_type=0
learning_momentum=0.000000
training_algorithm=2
train_error_function=1
train_stop_function=0
cascade_output_change_fraction=0.010000
quickprop_decay=-0.000100
quickprop_mu=1.750000
rprop_increase_factor=1.200000
rprop_decrease_factor=0.500000
rprop_delta_min=0.000000
rprop_delta_max=50.000000
rprop_delta_zero=0.100000
cascade_output_stagnation_epochs=12
cascade_candidate_change_fraction=0.010000
cascade_candidate_stagnation_epochs=12
cascade_max_out_epochs=150
cascade_min_out_epochs=50
cascade_max_cand_epochs=150
cascade_min_cand_epochs=50
cascade_num_candidate_groups=2
bit_fail_limit=3.49999994039535522461e-01
cascade_candidate_limit=1.00000000000000000000e+03
cascade_weight_multiplier=4.00000005960464477539e-01
cascade_activation_functions_count=10
cascade_activation_functions=3 5 7 8 10 11 14 15 16 17 
cascade_activation_steepnesses_count=4
cascade_activation_steepnesses=2.50000000000000000000e-01 5.00000000000000000000e-01 7.50000000000000000000e-01 1.00000000000000000000e+00 
layer_sizes=56 10 4 
scale_included=0
neurons (num_inputs, activation_function, activation_steepness)=(0, 0, 0.00000000000000000000e+00) (0, 0, 0.00000000000000000000e+00) (0, 0, 0.00000000000000000000e+00) (0, 0, 0.00000000000000000000e+00) (0, 0, 0.00000000000000000000e+00) (0, 0, 0.00000000000000000000e+00) (0, 0, 0.00000000000000000000e+00) (0, 0, 0.00000000000000000000e+00) (0, 0, 0.00000000000000000000e+00) (0, 0, 0.00000000000000000000e+00) (0, 0, 0.00000000000000000000e+00) (0, 0, 0.00000000000000000000e+00) (0, 0, 0.00000000000000000000e+00) (0, 0, 0.00000000000000000000e+00) (0, 0, 0.00000000000000000000e+00) (0, 0, 0.00000000000000000000e+00) (0, 0, 0.00000000000000000000e+00) (0, 0, 0.00000000000000000000e+00) (0, 0, 0.00000000000000000000e+00) (0, 0, 0.00000000000000000000e+00) (0, 0, 0.00000000000000000000e+00) (0, 0, 0.00000000000000000000e+00) (0, 0, 0.00000000000000000000e+00) (0, 0, 0.00000000000000000000e+00) (0, 0, 0.00000000000000000000e+00) (0, 0, 0.00000000000000000000e+00) (0, 0, 0.00000000000000000000e+00) (0, 0, 0.00000000000000000000e+00) (0, 0, 0.00000000000000000000e+00) (0, 0, 0.00000000000000000000e+00) (0, 0, 0.00000000000000000000e+00) (0, 0, 0.00000000000000000000e+00) (0, 0, 0.00000000000000000000e+00) (0, 0, 0.00000000000000000000e+00) (0, 0, 0.00000000000000000000e+00) (0, 0, 0.00000000000000000000e+00) (0, 0, 0.00000000000000000000e+00) (0, 0, 0.00000000000000000000e+00) (0, 0, 0.00000000000000000000e+00) (0, 0, 0.00000000000000000000e+00) (0, 0, 0.00000000000000000000e+00) (0, 0, 0.00000000000000000000e+00) (0, 0, 0.00000000000000000000e+00) (0, 0, 0.00000000000000000000e+00) (0, 0, 0.00000000000000000000e+00) (0, 0, 0.00000000000000000000e+00) (0, 0, 0.00000000000000000000e+00) (0, 0, 0.00000000000000000000e+00) (0, 0, 0.00000000000000000000e+00) (0, 0, 0.00000000000000000000e+00) (0, 0, 0.00000000000000000000e+00) (0, 0, 0.00000000000000000000e+00) (0, 0, 0.00000000000000000000e+00) (0, 0, 0.00000000000000000000e+00) (0, 0, 0.00000000000000000000e+00) (0, 0, 0.00000000000000000000e+00) (56, 5, 5.00000000000000000000e-01) (56, 5, 5.00000000000000000000e-01) (56, 5, 5.00000000000000000000e-01) (56, 5, 5.00000000000000000000e-01) (56, 5, 5.00000000000000000000e-01) (56, 5, 5.00000000000000000000e-01) (56, 5, 5.00000000000000000000e-01) (56, 5, 5.00000000000000000000e-01) (56, 5, 5.00000000000000000000e-01) (0, 5, 0.00000000000000000000e+00) (10, 5, 5.00000000000000000000e-01) (10, 5, 5.00000000000000000000e-01) (10, 5, 5.00000000000000000000e-01) (0, 5, 0.00000000000000000000e+00) 
connections (connected_to_neuron, weight)=(0, 1.55888233184814453125e+01) (1, 3.25489883422851562500e+01) (2, -7.82534362792968750000e+02) (3, 2.05523071289062500000e+01) (4, -3.10129337310791015625e+01) (5, -1.32219848632812500000e+03) (6, 1.71936325073242187500e+02) (7, 4.33946609497070312500e+01) (8, 5.83948097229003906250e+01) (9, 9.89523162841796875000e+01) (10, -7.39143705368041992188e+00) (11, -8.44355678558349609375e+00) (12, 7.76858150959014892578e-01) (13, -5.14146566390991210938e-01) (14, -2.12681076049804687500e+02) (15, -1.18166821289062500000e+03) (16, -1.51922054290771484375e+01) (17, -5.87850141525268554688e+00) (18, 2.77197341918945312500e+01) (19, -5.91908788681030273438e+00) (20, -8.46594715118408203125e+00) (21, 7.35361218452453613281e-01) (22, -6.41480505466461181641e-01) (23, -5.94272094726562500000e+02) (24, -1.45640625000000000000e+03) (25, -1.52750549316406250000e+01) (26, -6.03627920150756835938e+00) (27, 2.78243408203125000000e+01) (28, 5.19135322570800781250e+01) (29, 2.86124587059020996094e+00) (30, -2.36774876713752746582e-01) (31, 6.19521439075469970703e-01) (32, -2.14100226759910583496e-01) (33, -8.46018671989440917969e-01) (34, -7.40036740899085998535e-02) (35, -1.36812817382812500000e+03) (36, 2.29015216827392578125e+01) (37, 1.46442712402343750000e+03) (38, 1.20076332092285156250e+01) (39, 1.78813171386718750000e+00) (40, 2.86518716812133789062e+00) (41, 7.48268902301788330078e-01) (42, -1.22229255735874176025e-01) (43, 1.24662995338439941406e+00) (44, 3.54159011840820312500e+01) (45, 2.15944557189941406250e+01) (46, 7.49378784179687500000e+02) (47, 1.17088961601257324219e+00) (48, 6.35664224624633789062e+00) (49, 1.49198189377784729004e-01) (50, -3.83346527814865112305e-01) (51, -2.59611487388610839844e+00) (52, 1.51153216138482093811e-02) (53, 8.29226684570312500000e+01) (54, 1.41019954681396484375e+01) (55, 1.03552885353565216064e-01) (0, 3.53564810752868652344e+00) (1, 1.99713077545166015625e+01) (2, 5.39108337402343750000e+02) (3, 1.21237671375274658203e+00) (4, 8.03463172912597656250e+00) (5, -6.23386230468750000000e+01) (6, 7.11222763061523437500e+01) (7, 8.87224960327148437500e+01) (8, 2.41927124023437500000e+02) (9, -1.71463012695312500000e+01) (10, -7.84905147552490234375e+00) (11, 8.14130604267120361328e-02) (12, 2.91495740413665771484e-01) (13, 2.14406013488769531250e-01) (14, -6.31443560123443603516e-01) (15, -8.40102310180664062500e+01) (16, -5.70573282241821289062e+00) (17, -3.40347869873046875000e+02) (18, 2.22798514366149902344e+00) (19, -2.30891203880310058594e+00) (20, 1.48460105061531066895e-01) (21, 2.08106145262718200684e-01) (22, 1.87145650386810302734e-01) (23, -5.89673423767089843750e+01) (24, -1.11387702941894531250e+02) (25, -5.76699972152709960938e+00) (26, -3.40276611328125000000e+02) (27, 2.15753221511840820312e+00) (28, 1.98178558349609375000e+02) (29, 3.93233227729797363281e+00) (30, -6.41611576080322265625e-01) (31, 3.36175727844238281250e+00) (32, -1.92678719758987426758e-02) (33, 8.88255059719085693359e-01) (34, 3.49191606044769287109e-01) (35, -1.12074780273437500000e+03) (36, 7.19417619705200195312e+00) (37, 3.66275299072265625000e+02) (38, 5.05390548706054687500e+00) (39, 2.94842147827148437500e+00) (40, 2.69608283042907714844e+00) (41, 4.06160473823547363281e-01) (42, 3.30250072479248046875e+00) (43, 1.32908856868743896484e+00) (44, 5.52447357177734375000e+01) (45, 7.49438381195068359375e+00) (46, 9.44874267578125000000e+02) (47, 3.29587626457214355469e+00) (48, 1.07293605804443359375e+00) (49, 3.08268547058105468750e-01) (50, 2.57421910762786865234e-01) (51, -1.05528688430786132812e+00) (52, 4.25243377685546875000e-01) (53, 1.35426712036132812500e+02) (54, 5.12226676940917968750e+00) (55, -1.22319452464580535889e-01) (0, -5.18341064453125000000e+00) (1, -5.16465873718261718750e+01) (2, -3.72791992187500000000e+02) (3, -3.36493253707885742188e+00) (4, -1.72112197875976562500e+01) (5, 1.69121398925781250000e+01) (6, -5.21844635009765625000e+01) (7, -2.34353809356689453125e+01) (8, -2.26197570800781250000e+02) (9, -8.78705902099609375000e+01) (10, 2.45389881134033203125e+01) (11, 9.93166255950927734375e+00) (12, 2.22843837738037109375e+00) (13, 1.64645850658416748047e+00) (14, 6.72562255859375000000e+01) (15, 1.58694808959960937500e+02) (16, 2.54898471832275390625e+01) (17, 4.32115516662597656250e+01) (18, -1.40152287483215332031e+00) (19, 2.20021266937255859375e+01) (20, 1.00712575912475585938e+01) (21, 2.23279237747192382812e+00) (22, 1.51934063434600830078e+00) (23, 6.71736145019531250000e+01) (24, 1.58836990356445312500e+02) (25, 2.54085445404052734375e+01) (26, 2.39879417419433593750e+01) (27, -1.40489840507507324219e+00) (28, -3.09372310638427734375e+01) (29, -1.20553958415985107422e+00) (30, 1.02264738082885742188e+00) (31, -1.18447780609130859375e+00) (32, 5.63440024852752685547e-01) (33, -4.92259562015533447266e-01) (34, -2.02634513378143310547e-01) (35, 9.46323974609375000000e+02) (36, -5.40558528900146484375e+00) (37, -1.66187763214111328125e+01) (38, -7.37030363082885742188e+00) (39, 4.24676656723022460938e-01) (40, -1.05829131603240966797e+00) (41, -1.00614678859710693359e+00) (42, -1.73112761974334716797e+00) (43, -1.03763282299041748047e+00) (44, -1.89745941162109375000e+01) (45, -7.31933355331420898438e+00) (46, -1.35181738281250000000e+03) (47, -2.44407224655151367188e+00) (48, -7.35299646854400634766e-01) (49, -2.66558736562728881836e-01) (50, 4.97681796550750732422e-02) (51, 1.42911517620086669922e+00) (52, -5.40617346763610839844e-01) (53, -1.76189880371093750000e+01) (54, -5.20111370086669921875e+00) (55, -9.04347971081733703613e-02) (0, -1.50353705883026123047e+00) (1, 2.76286423206329345703e-01) (2, -9.13843566894531250000e+02) (3, 9.43101108074188232422e-01) (4, -3.35398376464843750000e+02) (5, -1.02638146972656250000e+03) (6, -9.64119445800781250000e+02) (7, 1.61268020629882812500e+02) (8, -3.07217529296875000000e+02) (9, 1.43653717041015625000e+02) (10, -1.21132731437683105469e+00) (11, 5.78496582031250000000e+02) (12, -6.98583650588989257812e+00) (13, 1.23623481750488281250e+02) (14, 1.98860669136047363281e+00) (15, -3.29389929771423339844e+00) (16, 9.13928031921386718750e-01) (17, -1.48080940246582031250e+01) (18, 1.25780820846557617188e+00) (19, 2.00554251670837402344e+00) (20, 5.78533874511718750000e+02) (21, -7.06354379653930664062e+00) (22, 1.23688674926757812500e+02) (23, 8.20018768310546875000e+00) (24, -3.30798935890197753906e+00) (25, 1.00879144668579101562e+00) (26, -1.46754226684570312500e+01) (27, 1.11168944835662841797e+00) (28, -1.36142292022705078125e+01) (29, -7.25906550884246826172e-01) (30, -2.85840439796447753906e+00) (31, 2.38246005028486251831e-03) (32, 2.31868028640747070312e+00) (33, 4.45755910873413085938e+00) (34, 3.53215813636779785156e+00) (35, -8.33564086914062500000e+02) (36, -1.39464688301086425781e+00) (37, 1.04516552734375000000e+03) (38, -5.73427200317382812500e-01) (39, 4.89645996093750000000e+02) (40, -8.49797308444976806641e-01) (41, -2.37663477659225463867e-01) (42, -4.99826431274414062500e-01) (43, -3.40173959732055664062e-01) (44, -8.40257525444030761719e-01) (45, -1.30129408836364746094e+00) (46, 7.17565822601318359375e+00) (47, -2.68101453781127929688e-01) (48, 8.12824070453643798828e-01) (49, -3.22340309619903564453e-01) (50, -2.39606142044067382812e-01) (51, -4.95342850685119628906e-01) (52, -2.31216713786125183105e-01) (53, -1.41544139385223388672e+00) (54, -2.12164092063903808594e+00) (55, -4.93776708841323852539e-01) (0, -4.10789221525192260742e-01) (1, 1.90115749835968017578e+00) (2, 1.45411577224731445312e+01) (3, 3.26314091682434082031e+00) (4, -3.91822099685668945312e+00) (5, -2.78381561279296875000e+02) (6, 9.85644340515136718750e+00) (7, 7.55780398845672607422e-01) (8, 3.47052215576171875000e+02) (9, 1.42150621414184570312e+01) (10, 2.82257705926895141602e-01) (11, -6.92069083452224731445e-02) (12, 1.37356027960777282715e-01) (13, -5.17596304416656494141e-02) (14, 6.31377077102661132812e+00) (15, -2.89714984893798828125e+01) (16, -5.17943680286407470703e-01) (17, -1.03500165939331054688e+01) (18, -2.32152208685874938965e-01) (19, 3.53994280099868774414e-01) (20, -1.55625596642494201660e-01) (21, -1.50006008148193359375e+00) (22, -9.00143533945083618164e-02) (23, -3.63316822052001953125e+00) (24, -2.89108848571777343750e+01) (25, -5.03828883171081542969e-01) (26, -2.48268356323242187500e+01) (27, -2.47051656246185302734e-01) (28, 1.15189941406250000000e+02) (29, 5.22724725306034088135e-03) (30, 2.26135075092315673828e-01) (31, 2.04751417040824890137e-01) (32, 1.33376240730285644531e-01) (33, 1.11344146728515625000e+00) (34, 1.25897899270057678223e-01) (35, -6.56739379882812500000e+02) (36, -2.02896773815155029297e-01) (37, 4.03741943359375000000e+02) (38, 6.51314795017242431641e-01) (39, 3.99705052375793457031e+00) (40, -1.49889931082725524902e-01) (41, -3.58024418354034423828e-01) (42, 1.62059143185615539551e-01) (43, -2.21815392374992370605e-01) (44, 6.34756565093994140625e-01) (45, -2.00136393308639526367e-01) (46, 9.02887268066406250000e+02) (47, -6.10959455370903015137e-02) (48, 2.83148026466369628906e+00) (49, -5.36156117916107177734e-01) (50, -3.89936715364456176758e-01) (51, -4.20316606760025024414e-01) (52, -2.60827064514160156250e-01) (53, 2.40126919746398925781e+00) (54, -5.73720157146453857422e-01) (55, -2.11707949638366699219e+00) (0, 1.25697958469390869141e+00) (1, 5.11670649051666259766e-01) (2, -1.05672802734375000000e+03) (3, 7.78726398944854736328e-01) (4, -6.36441802978515625000e+01) (5, 2.82923430204391479492e-01) (6, -3.68248329162597656250e+01) (7, -3.14629421234130859375e+01) (8, -3.75326309204101562500e+01) (9, -4.99478960037231445312e+00) (10, 3.41449236869812011719e+00) (11, 1.42780220508575439453e+00) (12, 6.40151083469390869141e-01) (13, 6.44070982933044433594e-01) (14, 6.02136802673339843750e+00) (15, 4.67048110961914062500e+01) (16, 1.41654384136199951172e+00) (17, 1.06304330825805664062e+01) (18, 3.21257948875427246094e+00) (19, 2.34731984138488769531e+00) (20, 1.54429590702056884766e+00) (21, 6.72653377056121826172e-01) (22, 6.20151042938232421875e-01) (23, 6.05185127258300781250e+00) (24, 4.34980278015136718750e+01) (25, 1.38189256191253662109e+00) (26, 1.06884889602661132812e+01) (27, 3.21210980415344238281e+00) (28, -2.78826236724853515625e+00) (29, -1.47476186975836753845e-02) (30, 4.52374458312988281250e-01) (31, 1.18418015539646148682e-01) (32, -1.15090489387512207031e-01) (33, -1.93866744637489318848e-01) (34, -7.66845420002937316895e-02) (35, 3.99629859924316406250e+01) (36, 2.69441962242126464844e+00) (37, -8.74006881713867187500e+01) (38, 3.89883875846862792969e-01) (39, 9.82731342315673828125e-01) (40, 6.22799336910247802734e-01) (41, 2.91737932711839675903e-02) (42, -4.23358798027038574219e-01) (43, 1.04605317115783691406e-01) (44, 2.39631980657577514648e-01) (45, 1.01323676109313964844e+00) (46, -6.04358825683593750000e+01) (47, 5.51076009869575500488e-02) (48, 7.78764545917510986328e-01) (49, -1.58692508935928344727e-01) (50, -8.43983963131904602051e-02) (51, -1.45763826370239257812e+00) (52, -1.11048631370067596436e-01) (53, -7.34492158889770507812e+00) (54, 8.11051368713378906250e-01) (55, 6.50316715240478515625e-01) (0, -1.85773029923439025879e-01) (1, 1.76237249374389648438e+00) (2, 3.27307952880859375000e+02) (3, 3.00402134656906127930e-01) (4, 5.52347106933593750000e+01) (5, 5.36287841796875000000e+02) (6, 3.76887420654296875000e+02) (7, 6.48822784423828125000e+01) (8, 3.37814750671386718750e+01) (9, 1.04759511947631835938e+01) (10, 1.63055419921875000000e+01) (11, -1.96352035522460937500e+02) (12, 3.06780109405517578125e+01) (13, -8.39536437988281250000e+01) (14, 6.45667612552642822266e-01) (15, 2.66937279701232910156e+00) (16, -1.92928946018218994141e+00) (17, 1.98237350463867187500e+02) (18, -3.69529032707214355469e+00) (19, 1.57781667709350585938e+01) (20, -1.96402206420898437500e+02) (21, 3.07707920074462890625e+01) (22, -8.40824813842773437500e+01) (23, 1.74257326126098632812e+00) (24, 2.70425772666931152344e+00) (25, -1.75819790363311767578e+00) (26, 1.98284164428710937500e+02) (27, -3.78691220283508300781e+00) (28, -7.65127563476562500000e+01) (29, 2.42175891995429992676e-01) (30, 1.63851833343505859375e+01) (31, -2.40975022315979003906e+00) (32, -4.29331064224243164062e+00) (33, -4.32379770278930664062e+00) (34, -5.05123901367187500000e+00) (35, 1.27063488769531250000e+03) (36, -3.06184339523315429688e+00) (37, -9.64971069335937500000e+02) (38, -6.82775080204010009766e-01) (39, -1.81533477783203125000e+02) (40, 2.95336335897445678711e-01) (41, -6.05893850326538085938e-01) (42, 3.09419841505587100983e-03) (43, -5.58214150369167327881e-02) (44, -8.45193862915039062500e+00) (45, -1.57844033092260360718e-02) (46, -9.23698902130126953125e-01) (47, -2.04244226217269897461e-01) (48, 3.14819544553756713867e-01) (49, -4.21332903206348419189e-02) (50, -3.44125658273696899414e-01) (51, 8.99258017539978027344e-01) (52, -3.75205516815185546875e-01) (53, -3.69412517547607421875e+00) (54, 3.82135540246963500977e-01) (55, 5.43760582804679870605e-02) (0, 3.54997587203979492188e+00) (1, 2.64758281707763671875e+01) (2, 1.06374743652343750000e+03) (3, 5.14276981353759765625e+00) (4, 3.33056335449218750000e+01) (5, 3.49161911010742187500e+01) (6, 5.58566398620605468750e+01) (7, 3.62778892517089843750e+01) (8, 3.00527862548828125000e+02) (9, -1.39466819763183593750e+01) (10, 8.66442584991455078125e+00) (11, -4.01789236068725585938e+00) (12, 1.82277977466583251953e+00) (13, -3.07268905639648437500e+00) (14, -6.00357971191406250000e+01) (15, -3.11874351501464843750e+01) (16, -8.75097274780273437500e+00) (17, -5.34767818450927734375e+00) (18, 2.14613342285156250000e+00) (19, 3.81773519515991210938e+00) (20, -3.96710491180419921875e+00) (21, 1.65113139152526855469e+00) (22, -3.06557369232177734375e+00) (23, -5.62089614868164062500e+01) (24, -2.77878723144531250000e+01) (25, -7.97024154663085937500e+00) (26, -5.37284755706787109375e+00) (27, 2.11990618705749511719e+00) (28, 5.11316642761230468750e+01) (29, 1.26085889339447021484e+00) (30, 4.72683548927307128906e-01) (31, 3.95047873258590698242e-01) (32, -4.20551776885986328125e-01) (33, -6.20012640953063964844e-01) (34, -3.15225213766098022461e-01) (35, 7.10925750732421875000e+01) (36, 3.37023186683654785156e+00) (37, -4.72379455566406250000e+01) (38, 1.13047826290130615234e+00) (39, 2.68861353397369384766e-01) (40, 1.30737030506134033203e+00) (41, 2.26013749837875366211e-01) (42, 8.84495615959167480469e-01) (43, 1.00286304950714111328e+00) (44, 1.76255207061767578125e+01) (45, 3.15679049491882324219e+00) (46, 2.19789218902587890625e+01) (47, 1.07642197608947753906e+00) (48, 3.70674681663513183594e+00) (49, -1.45628586411476135254e-01) (50, -1.96028098464012145996e-01) (51, -4.18031930923461914062e-01) (52, -6.13999962806701660156e-02) (53, 7.66183166503906250000e+01) (54, 1.96206283569335937500e+01) (55, -1.42333194613456726074e-01) (0, -3.33854079246520996094e+00) (1, -7.87219667434692382812e+00) (2, -1.01225653076171875000e+03) (3, -1.52354407310485839844e+00) (4, -4.48973815917968750000e+02) (5, -9.73517333984375000000e+02) (6, -1.09010510253906250000e+03) (7, -9.58727340698242187500e+01) (8, -2.37607208251953125000e+02) (9, 1.00737434387207031250e+02) (10, -5.55900421142578125000e+01) (11, 1.47783523559570312500e+02) (12, -1.52740583419799804688e+01) (13, 1.80976226806640625000e+02) (14, 1.87399398803710937500e+02) (15, 4.79885139465332031250e+01) (16, 7.19275970458984375000e+01) (17, -1.19468460083007812500e+02) (18, 1.47396922111511230469e+00) (19, 6.71955108642578125000e+00) (20, 1.47761367797851562500e+02) (21, -1.51247291564941406250e+01) (22, 2.57516754150390625000e+02) (23, 6.26302452087402343750e+01) (24, 2.44424514770507812500e+01) (25, 7.17844390869140625000e+01) (26, -1.19519683837890625000e+02) (27, 1.38743948936462402344e+00) (28, 1.06969024658203125000e+02) (29, -1.55479669570922851562e+01) (30, 8.46074745059013366699e-02) (31, -2.30575770139694213867e-01) (32, 6.30935049057006835938e+00) (33, 1.96172034740447998047e+00) (34, 9.71203804016113281250e-01) (35, -4.83432502746582031250e+01) (36, -7.98779010772705078125e+00) (37, 1.17729382324218750000e+03) (38, -3.86486482620239257812e+00) (39, 3.10423919677734375000e+02) (40, -1.54481239318847656250e+01) (41, -2.47411847114562988281e+00) (42, -3.70081901550292968750e+00) (43, -4.57348918914794921875e+00) (44, 5.85923194885253906250e+01) (45, -2.21182823181152343750e+01) (46, 8.75546264648437500000e+00) (47, -4.04054641723632812500e+00) (48, 2.28883191943168640137e-01) (49, -4.14262771606445312500e-01) (50, 1.11986018717288970947e-01) (51, 2.97515243291854858398e-01) (52, 1.22658632695674896240e-01) (53, -2.64441032409667968750e+01) (54, -1.40978145599365234375e+01) (55, 4.73151713609695434570e-01) (56, -1.25885717570781707764e-02) (57, 2.75453395843505859375e+01) (58, -1.00214624404907226562e+00) (59, 5.73656737804412841797e-01) (60, 5.98556804656982421875e+00) (61, -9.13415241241455078125e+00) (62, 4.39596980810165405273e-01) (63, 2.34249877929687500000e+02) (64, -8.91827392578125000000e+00) (65, -9.76703834533691406250e+00) (56, 4.67704646289348602295e-02) (57, 1.63012542724609375000e+01) (58, 8.64316046237945556641e-01) (59, 1.30286493301391601562e+01) (60, 7.19851195812225341797e-01) (61, 2.70426511764526367188e+00) (62, -4.14997482299804687500e+01) (63, -3.77647247314453125000e+02) (64, 4.35750427246093750000e+01) (65, -4.66443896293640136719e-02) (56, -2.54838728904724121094e+00) (57, -7.38834915161132812500e+01) (58, 1.05322241783142089844e+00) (59, -6.33955001831054687500e+00) (60, -8.20412933826446533203e-01) (61, 8.75021362304687500000e+00) (62, 6.56716871261596679688e+00) (63, 8.34373569488525390625e+00) (64, -2.02148075103759765625e+01) (65, 8.70858430862426757812e-01) 
