FANN_FLO_2.1
num_layers=3
learning_rate=0.700000
connection_rate=1.000000
network_type=0
learning_momentum=0.000000
training_algorithm=2
train_error_function=1
train_stop_function=0
cascade_output_change_fraction=0.010000
quickprop_decay=-0.000100
quickprop_mu=1.750000
rprop_increase_factor=1.200000
rprop_decrease_factor=0.500000
rprop_delta_min=0.000000
rprop_delta_max=50.000000
rprop_delta_zero=0.100000
cascade_output_stagnation_epochs=12
cascade_candidate_change_fraction=0.010000
cascade_candidate_stagnation_epochs=12
cascade_max_out_epochs=150
cascade_min_out_epochs=50
cascade_max_cand_epochs=150
cascade_min_cand_epochs=50
cascade_num_candidate_groups=2
bit_fail_limit=3.49999994039535522461e-01
cascade_candidate_limit=1.00000000000000000000e+03
cascade_weight_multiplier=4.00000005960464477539e-01
cascade_activation_functions_count=10
cascade_activation_functions=3 5 7 8 10 11 14 15 16 17 
cascade_activation_steepnesses_count=4
cascade_activation_steepnesses=2.50000000000000000000e-01 5.00000000000000000000e-01 7.50000000000000000000e-01 1.00000000000000000000e+00 
layer_sizes=4 10 3 
scale_included=0
neurons (num_inputs, activation_function, activation_steepness)=(0, 0, 0.00000000000000000000e+00) (0, 0, 0.00000000000000000000e+00) (0, 0, 0.00000000000000000000e+00) (0, 0, 0.00000000000000000000e+00) (4, 5, 5.00000000000000000000e-01) (4, 5, 5.00000000000000000000e-01) (4, 5, 5.00000000000000000000e-01) (4, 5, 5.00000000000000000000e-01) (4, 5, 5.00000000000000000000e-01) (4, 5, 5.00000000000000000000e-01) (4, 5, 5.00000000000000000000e-01) (4, 5, 5.00000000000000000000e-01) (4, 5, 5.00000000000000000000e-01) (0, 5, 0.00000000000000000000e+00) (10, 5, 5.00000000000000000000e-01) (10, 5, 5.00000000000000000000e-01) (0, 5, 0.00000000000000000000e+00) 
connections (connected_to_neuron, weight)=(0, -9.19810485839843750000e+00) (1, -4.91473004221916198730e-02) (2, 6.36810839176177978516e-01) (3, 9.06699478626251220703e-01) (0, 9.76347386837005615234e-01) (1, 5.84716439247131347656e-01) (2, 3.14395092427730560303e-02) (3, -2.84066013991832733154e-02) (0, -9.14088726043701171875e+00) (1, 1.99142545461654663086e-01) (2, 6.57145380973815917969e-01) (3, 9.09434258937835693359e-01) (0, 1.19268369674682617188e+01) (1, 7.01879978179931640625e-01) (2, -1.49516165256500244141e-01) (3, -8.60685408115386962891e-01) (0, 5.77436447143554687500e+00) (1, 9.43130791187286376953e-01) (2, 1.70018941164016723633e-01) (3, 2.45812967419624328613e-01) (0, 8.59088301658630371094e-01) (1, 4.13888216018676757812e-01) (2, 1.81527193635702133179e-02) (3, 8.39818865060806274414e-02) (0, 5.27304029464721679688e+00) (1, 9.37166392803192138672e-01) (2, -4.65198457241058349609e-02) (3, -1.28411754965782165527e-01) (0, 1.18405275344848632812e+01) (1, 5.75208604335784912109e-01) (2, -2.43254750967025756836e-01) (3, -9.37856853008270263672e-01) (0, -9.12534904479980468750e+00) (1, -2.02681720256805419922e-02) (2, 6.85172379016876220703e-01) (3, 8.91630470752716064453e-01) (4, 2.18983612060546875000e+02) (5, 7.06964373588562011719e-01) (6, 1.09942344665527343750e+02) (7, -2.16409802436828613281e+00) (8, 1.34082250595092773438e+01) (9, 3.52507638931274414062e+00) (10, 1.32601791381835937500e+02) (11, -2.84392285346984863281e+00) (12, 8.98966674804687500000e+01) (13, 1.16922628879547119141e+00) (4, -3.15525512695312500000e+02) (5, 4.22764331102371215820e-01) (6, -6.15264091491699218750e+01) (7, 2.82832050323486328125e+00) (8, -4.28200006484985351562e+00) (9, -9.12754014134407043457e-02) (10, -1.66659027099609375000e+02) (11, 3.79783678054809570312e+00) (12, -3.12023925781250000000e+01) (13, -7.23046302795410156250e-01) 
